3352
5755
1318
4668
2744
5057
2321
1987
2581
-184
5902
-847
2240
-2016
3333
2435
3017
209
4390
1642
1637
2912
-2268
5902
666
3063
2750
4190
1872
-1322
-148
-1026
1180
-5388
213
-1309
471
-301
-2915
-4608
-3206
2023
2794
1478
395
-1877
4378
3034
1212
4016
-2579
4991
4466
-3040
1940
534
3180
-4921
-2045
-3064
2645
5590
-2480
3951
4322
1451
-2229
591
-1195
1491
2032
2396
-2897
1602
929
-119
-50
-2796
4338
-1591
-845
6050
4195
4035
5089
4112
3123
2963
4735
-4618
-5090
1618
-2747
-4732
-3772
-3206
1228
155
713
-655
-4111
-3091
-1854
1971
-1918
-4280
-1702
-5548
913
-680
-3053
1816
-979
-272
-730
38
-1139
-902
-5409
299
4438
-449
-3369
-2438
3558
-2747
-120
-3765
-555
-1091
-1465
-4936
-842
-5831
-5880
-5763
212
3196
1950
1342
2599
-4676
0
3354
1041
-1537
-6015
-659
-143
-2595
3970
2681
2831
-3157
-5562
-935
4511
2370
-1468
142
-981
2512
-5851
4330
-3371
675
4898
2805
-2687
4813
2082
3707
-5690
2716
4625
-1486
2950
875
1267
1807
5305
-657
3260
3595
637
-2872
-2222
1804
-1383
-3425
-5690
2207
2749
3462
3240
845
4212
1595
3904
272
4577
3063
2562
-548
-242
745
5920
1599
4191
4122
3220
3569
-2647
2231
981
1379
631
4725
-1718
-431
339
3411
3979
1157
-9722
4207
3545
1157
5617
3647
100
2229
5953
-1186
-5282
-4433
-4541
5358
-4642
-4658
-1287
-920
522
-3530
-4582
2848
-1189
-5360
-5692
829
5368
4223
-2048
-4959
6070
-3529
-3755
-4115
3607
955
4335
-2647
-4800
-2569
-323
-1539
-5076
-2778
-379
-2594
-1624
3515
-1761
-4311
-5426
-5110
-1861
-4118
-3348
-4991
-1100
3578
3595
-4654
3838
3760
1378
3294
3336
979
-1966
2206
-1213
-3861
-862
2577
-4312
-4030
1740
-6046
3988
-5766
-4766
329
-1597
-1868
-2523
4194
3941
158
-6483
3955
1011
2090
-777
509
-1936
-6565
1081
-810
-2136
-263
-1607
-6407
-4974
-4852
-5846
-5625
-607
725
1235
4345
5163
-1207
25
-548
-177
-2040
-1970
141
4760
-4728
2074
2392
1523
-274
-1774
-3801
-1015
3333
-3947
4199
3825
1605
-3097
1651
-2184
1560
8
2910
-1614
3046
3830
1211
-4295
-3340
413
-1344
-1022
1087
4075
326
3594
-950
2225
2130
4522
-4307
-1567
4804
-5694
364
-3659
2927
-2009
1874
-240
3308
-4955
-2744
-2553
3650
-3938
-3838
-1868
-1325
3460
-3309
-4682
540
-4473
-6736
-1977
391
3150
-1453
-4852
3414
4043
1649
260
-1467
803
-5116
3435
-6513
151
-2502
-22
-1330
-2017
-5500
-2600
-2715
-5510
910
-1086
2112
3905
290
305
1881
2653
3868
-2382
1963
5002
-2298
1082
5408
524
-1152
-1085
-563
-1425
4525
-4808
3338
4569
1974
-3462
3726
-894
5190
526
1330
-2461
1901
3142
-1121
-3020
374
2277
-4100
4211
5379
810
4316
-243
2263
2815
2991
4640
-2001
-3531
-311
-5028
-2032
-3477
-3330
10
2373
-4117
445
5356
-1266
-3188
-2563
4807
2687
-3487
1117
130
5631
801
-116
1630
2018
-1901
-2365
-3791
1227
937
423
-1530
3431
-475
-3727
1001
1825
-1229
3979
-1711
701
4246
3398
1289
1335
6014
6333
4351
-2435
-4153
-2561
-4256
1917
-545
-50
-5349
-5240
1599
-1170
57
4842
-4905
-1941
-5615
2451
4846
1669
-2666
-5758
3050
-3353
-2200
-4328
6154
-2412
-394
-5297
-442
-2101
599
-2211
-4317
-5969
24
-2440
-5889
187
-2870
-4382
-4805
-1758
-208
-2135
-1640
-2151
-492
355
1855
-2341
795
508
2850
-201
397
-977
1445
-1678
1189
-2252
1501
-2417
-770
254
-2252
-135
-1726
-2291
-578
-2012
432
-1636
1867
278
-473
-4057
-502
631
-1876
644
1248
-3292
-1910
-2859
-993
-4735
-154
-4356
-4082
-2806
-4919
-3386
-1481
-5045
-1127
3541
142
4150
2238
-3590
1087
1224
1679
1746
-5222
2807
3506
-4968
3963
5400
1489
-3404
-3215
-4931
4429
3865
-4394
-128
2800
191
-4807
751
-4768
2830
5122
4168
-974
2418
2359
1049
-9237
-1242
2792
-4236
-1
-248
3378
-1007
4301
2995
73
1378
2025
-4820
-7954
-1070
-5718
-4750
-3803
744
-1405
-272
-1789
-1322
869
-2330
-3248
1249
3723
-1479
-2010
1391
-2939
1211
2784
-2872
2441
-678
-1999
-4607
328
-203
-326
-1166
-4377
1748
1022
-320
1088
-128
2018
2399
-2586
5843
1467
2012
4623
4507
2333
3792
231
-3682
-4670
-1734
-1612
4996
-4382
-1505
-3650
-211
3708
-4693
-12
372
-354
-4793
-3860
1339
5629
2387
-1690
-5711
2657
-5426
-3075
-1795
225
-140
680
-466
-5377
-3263
6159
-5658
-1212
-2522
5189
-1850
-5337
5952
-2706
-3657
-5617
700
-4301
-3498
-5038
-4508
-5491
4289
4902
0
2144
1451
16
659
1247
6148
6228
3306
-2403
923
3404
1350
1728
4330
256
3910
2845
1099
2230
-1566
1514
-441
6345
5241
1317
5521
-130
2852
4399
4527
-3586
6974
5741
-1758
-303
-1547
1793
-4688
-2918
-4644
-5113
-5592
-1804
-3179
-3502
2133
4920
4155
-249
-854
739
2876
3641
3741
-4835
114
1902
-200
-246
6030
650
-2227
-3269
-4773
1953
2463
-3422
-326
5144
157
17
4670
-754
6188
2093
5582
-4628
160
18
3613
919
3147
1379
-1025
4332
4410
5565
2621
4851
1497
2494
2056
1584
-5306
-1846
1738
-1382
-1482
-1889
-3270
3537
3046
-2012
2500
2431
909
-1443
-2113
-1345
2390
-2350
4951
2659
1052
135
147
5779
2313
-448
3385
-2186
3560
-303
-2671
259
-634
-2062
-1578
4054
4607
4278
3197
-2967
693
257
1869
796
6093
1975
5266
2520
-5398
-519
-3696
-139
5198
-2726
-2272
-456
-243
-46
-1089
-1470
1014
-3279
-3769
-2126
3151
4243
2739
-4898
-5363
5622
-1849
-480
-2257
799
-2088
4284
-5340
-1539
-4391
3036
-3237
169
720
2350
-2263
-1922
2268
1133
450
-2788
-5380
-1955
-2075
-2692
-4866
-4589
5611
1419
-3263
1701
5260
2872
1608
-2453
-1393
-652
1802
-132
317
499
-2529
4169
-1045
1244
4526
-3268
4368
3839
-872
4017
2427
-2910
-2379
-2136
2064
1113
-124
1056
2695
-230
-700
-2196
-178
-261
2082
-160
1439
3297
1799
5916
1310
650
5814
756
-2691
-5404
267
-4263
2802
-1494
-5014
-4413
-2174
3081
-5237
-3196
5034
208
-2120
-196
4854
4493
1556
-3701
-485
4211
-181
-5735
-2731
4761
-3213
-173
-2510
-5825
-1373
1086
-2641
-2063
-5832
2557
-933
-5255
1067
-3443
-5318
-5805
-5018
-2469
-3718
-4132
-662
-3102
812
1557
-5491
4847
5205
827
-180
5992
4048
4794
2812
-1131
1830
4019
-225
873
-789
5110
597
3372
846
-2274
-635
3820
-595
3779
960
-32
5263
-2833
3912
5060
3752
-3511
1482
612
1324
-946
398
3684
-3489
-554
-411
-1589
-5334
-3060
-5651
-1974
-302
4369
4265
4635
-2171
-101
2926
550
2504
179
3546
5908
-5127
3910
5833
-977
-1593
-325
-4589
-146
3746
-3089
3679
4106
3731
-3270
4124
-4635
4118
2503
-19
-4481
3545
1066
4048
-3050
2020
3134
-4611
-1248
1404
4056
4287
476
604
1056
1032
2335
-4151
-2571
2319
-2121
-4263
-4058
820
-2546
-3679
-3207
-3903
-3125
39
-2716
893
-190
-3212
-3546
-1952
-4630
600
-2855
512
-4682
-4758
297
-3144
-729
-5153
-5271
-496
-695
-1422
684
-121
-1808
-4733
-615
-1676
-1985
-543
-3990
515
-3420
-1021
-2740
591
-2962
2683
-624
3376
3843
-1867
558
-548
536
2164
-3153
-1116
3228
-3854
1835
1068
171
257
-53
-4988
-1048
-427
-3616
2975
3298
1606
-2434
-2495
-1266
2734
-1344
-2194
572
1237
2829
3274
-3197
2562
-1925
-2176
800
4467
-2164
-2226
3156
-2344
-2033
-260
3856
-1036
-3533
2730
-1671
-4647
-1302
3035
5373
6097
4759
-214
-3988
82
4263
1706
759
1852
1025
-1933
601
1948
723
881
2253
-2631
5720
4552
3551
-300
1497
2741
1606
3272
-1022
3021
1254
-2975
4708
-800
2303
-105
626
-2329
-868
-5685
-338
-4159
-5668
2820
705
340
2952
-2079
2772
-746
3198
257
-2237
-435
2297
576
2413
1740
-658
-3131
-8
-5005
1542
5330
-2680
-158
1584
3123
-1002
-5
-2836
1858
5793
4070
-4767
5016
-989
3478
-205
2824
4554
-3556
4084
181
4722
1644
2439
3033
4137
-15
4907
-3001
-4809
5307
-803
-5810
-2758
-2606
-250
-235
210
800
-2024
65
-547
4507
-3498
-1355
2016
-1280
-642
-3190
-2823
-1836
-95
-408
-2028
2633
-1472
2046
-801
-1873
-268
26
2162
-2747
2596
-3966
-1566
-6004
-2111
-4721
-741
-6000
-1713
-3969
-5965
-4040
-2680
2909
4789
-1272
-817
-4800
1284
1329
1278
18
-3722
910
4462
-4269
283
3582
370
-4382
-6086
-3193
327
2521
-3654
2786
2968
3771
-3992
-916
-937
2436
-852
917
-637
1349
3683
5176
-4757
-2233
4085
-6182
1041
4696
3342
4288
3158
2552
929
2212
-875
-3721
-6190
2420
-2464
-852
-6404
2684
-197
1190
575
4885
1051
3518
2857
2247
3780
5441
2599
-342
1888
497
615
3636
2388
2376
4458
4378
3635
3284
4665
5135
391
4043
-2923
1108
2744
4952
2915
332
2321
4948
6227
601
5956
2407
5720
698
5682
960
3150
-2964
392
3181
-273
186
-861
-1552
2392
859
2486
4584
-671
-1216
3474
3134
476
1089
2560
369
3670
1649
-2402
1447
695
-3019
4363
3042
-1313
-1557
808
-1372
-303
1265
2015
1150
-2607
3422
1132
550
-1127
2766
739
2733
-2356
1344
-3225
5297
3055
-1019
4152
3125
2427
2645
1521
2477
-15
4354
-62
-2665
2531
3696
-1968
533
-67
-3444
4268
-4130
-447
-1341
-2765
-1581
-303
4127
4952
1158
-5394
3893
2994
1359
868
1671
-1540
-2924
3971
-4683
3051
-477
-5545
-4195
179
-1434
-1937
414
-4605
5047
4597
-1048
4265
-4367
4149
4118
619
4258
-1443
5001
16
-2952
293
5182
2173
-1549
-4861
527
-353
2502
-2241
2203
4342
-617
-2716
4289
-1957
2502
1928
4006
-1883
4019
4673
5486
-468
3081
710
285
4059
81
43
-6
4125
3432
-41
3392
-673
-15
71
4281
-3707
-636
-1017
1169
3169
1964
2167
-1381
1528
4372
2480
121
2680
4155
392
525
-920
210
-23
71
6144
3583
17
-512
3558
-929
1160
-2063
3357
4823
462
1889
-785
105
-1027
1539
-3623
3406
1524
4780
377
839
814
-404
5175
-935
-5176
-3855
13
5299
765
-3343
-4505
911
2536
-997
-1868
4701
152
-2396
-358
5787
932
1293
-4344
-4495
1145
-3806
-2498
-3554
1943
-4446
934
-2504
764
-3824
5024
-3713
1044
-2156
5014
2798
-2072
-258
-4626
-3070
-688
-3101
-2582
-2184
-3106
1275
-3443
2633
1764
531
366
3157
5893
452
-237
141
877
-578
1262
-511
-2449
-2114
821
97
-1944
5618
-596
4212
4346
-2176
4946
2746
2368
2513
-1508
3623
-143
3052
2245
497
1125
1572
-660
1605
3018
3380
-1506
3895
1754
5020
650
1339
4293
392
3809
-2081
-5948
-5403
-1383
1098
-3335
-2585
-3233
-5137
5628
203
-3324
5644
807
-4284
-447
4776
6105
4963
-3625
-1171
2436
-615
-1685
-3531
1657
947
2199
-5265
-4642
-3095
2978
-4740
-5277
162
2894
1291
-1937
4987
-2532
-3785
-3316
-4429
-2667
-104
-1446
-3298
691
4812
67
-210
1658
5416
1513
-1537
-222
-4642
-1916
-2578
-4464
427
-4978
-4186
-550
-3066
-940
-422
727
-4935
407
1987
-5029
-4265
23
-573
-4997
612
-457
-489
942
-5127
-370
-4339
-3489
302
-4067
-4353
2054
-4765
-1143
-5635
112
-769
190
-980
-5813
361
799
1228
-2179
-5080
-1688
-3303
-3114
274
-5401
-2933
-2553
-3743
-1436
-1503
2230
-5017
-3864
-3188
282
-1205
-2255
-1124
568
329
-4751
2370
-4822
1577
2623
-3069
-923
390
-3073
884
-6079
-1997
2334
-1441
-3431
1671
-1317
-2304
-1768
1621
1302
-3293
-554
327
-4698
-1834
-5190
-5740
-2123
-1133
1260
5212
-40
909
-19
3146
4202
5954
4676
5496
798
501
2906
-724
-1601
1822
3870
-1362
2799
5111
3418
2385
2726
2815
5445
5636
3194
2058
5969
-1113
401
2011
4799
-1179
579
-1541
-899
-1810
-3376
384
364
5417
3593
585
-827
901
1260
5288
-4
4743
422
3285
5366
-1571
2502
4024
1398
1205
-356
-899
-49
3996
-497
3650
529
2331
-2333
4708
-1606
2152
-660
2607
-5263
4582
3950
763
-1345
2748
5815
-1235
2221
3096
-192
1762
2834
334
791
2847
327
-5178
-2048
2105
-2906
-4813
-1401
1686
1197
1287
1769
750
313
2538
3704
2364
181
1122
5097
2246
1283
1181
1191
-3660
6024
-690
1734
6174
4028
4846
5359
2392
1052
236
2761
6021
6267
1379
4327
573
3191
-4114
648
-1198
-1462
1378
134
1098
-355
730
4680
-348
3661
542
-394
5302
6029
2609
-3048
3019
-340
-994
2975
838
2118
-2172
-1086
-1335
4258
270
-3875
3617
3678
400
-1414
1842
-3306
2588
2577
4755
-3283
2197
5071
4834
-1945
536
706
-3279
5326
3445
-53
4503
-629
1354
3460
1197
4773
-2843
-982
4428
-1376
-2458
-697
2600
709
1670
4396
5571
5375
6717
6240
5187
2643
1900
975
2814
927
463
3975
-343
5478
6497
6297
4532
3873
1128
4711
1002
3104
4181
1319
-370
3695
2212
4183
4981
-1165
1552
3671
3146
5922
1409
1207
4433
177
-1118
-3377
-2836
955
5646
-3336
13
-2350
-1566
3950
-1952
-792
65
-2578
-2082
-2143
2197
6226
4787
-489
3608
2422
-635
-3505
-1113
3889
-1349
1325
449
-496
-1218
3124
-3645
1226
19
3709
-1965
-295
666
1145
-3032
-1093
2317
1660
-3220
1546
2105
1010
159
5289
2103
3982
4232
2666
1538
-986
-1870
1630
-1824
-5669
-3370
2939
3039
-1091
-4859
804
-1542
-85
-1584
-2696
1812
-3623
-1193
-1753
2944
3642
-3422
-873
3019
2625
-1355
1640
1943
-1731
-1645
-1012
-1352
1972
-5509
-4476
-2307
-2106
-5610
-779
-5076
-4485
3361
2979
4151
1719
-3379
5352
2241
3376
-1914
-2504
1910
5548
-3868
-625
3578
2190
-6876
-2173
-3793
4226
-921
-2286
1443
150
1322
-808
101
48
600
5004
3623
-120
5505
1364
4348
-4825
2853
4018
-1281
1513
-582
-963
2002
697
2726
-121
-991
1968
-5003
-5258
1601
-6170
-957
-3536
-1852
-1217
-476
-4150
-1833
3600
-1219
-2582
1102
3246
3686
-3505
5242
-3993
4541
-5
847
3734
2306
742
-2051
-2413
2450
-388
-2751
-3315
1998
2009
-4495
1659
-37
-990
104
-3515
1621
6001
1375
5827
4591
1828
2457
1227
589
-1877
-5405
-151
-851
-5226
-4722
-2535
507
1171
-5494
-2959
2986
-5320
-1099
-4141
5657
3129
2109
-5732
-6008
2675
-3908
-2087
-3609
1665
-4486
2729
-4207
-1146
-2262
1023
-2967
-1671
-5429
-785
1941
-1781
5704
-2358
-5658
-3688
-3194
-4470
-3679
226
-1840
-815
2326
573
-5088
3710
5311
3248
276
-2946
-2513
-305
2205
4294
1470
2409
-3574
-383
4581
-1078
2748
-3154
5622
5505
-2045
1858
3838
2213
2816
1760
-717
-187
-3727
-3624
2823
-2883
615
1428
16
-2395
675
-307
4208
6120
886
3038
4759
5162
441
4928
-610
-842
-4929
-150
2660
-2772
-2386
-2611
-2720
-369
-3232
-4583
5942
-2729
3
-3771
2999
2647
3690
-2949
-4625
3988
-343
-2357
-3712
1339
-3364
1545
-559
-5408
-884
4881
-750
-1757
-2896
2573
2440
-5494
-375
-1795
-5931
-3356
-2169
-4108
-4818
-3952
-3428
-2354
-258
3144
-3029
703
3511
1711
-877
1349
1813
3109
-126
1166
4083
1135
-709
3152
3528
4060
2623
-136
5401
3117
2048
4554
547
-1453
-2069
667
5271
2513
-1631
2585
1637
2289
-912
523
5936
-806
5590
-3156
5067
5945
5283
582
5983
3572
3604
5034
-5106
-3838
1522
-4025
3051
-1256
-5125
452
-811
-467
-3642
-2860
3938
-3970
-4859
-1114
4184
1583
4255
-1523
-2982
4949
46
-3202
-3587
5646
1694
4417
-808
-1579
808
3997
817
-2324
-3406
1332
2573
-3180
2685
-3466
-2583
-3649
954
-2516
-5305
-1318
-4114
-2440
2621
5790
-3004
371
3187
3850
2
-2856
-4620
-1107
-5816
-4043
-3259
-3811
206
-687
-1866
-322
-3066
-4165
-3230
-1084
-2706
708
321
-2827
-3426
-3671
-291
-561
-1284
-3703
-3817
-1543
-1981
-233
1244
-1410
366
-215
3528
454
1104
1515
2802
3291
2206
2661
-1973
-2722
-2492
-2920
1624
845
-4380
-1631
810
1352
-4228
-823
2733
-3175
-926
-647
-2993
3929
-364
860
-2431
1232
-4714
1236
-2269
-786
-993
908
-2984
-605
-1578
3914
-4035
-5194
-2950
1274
1945
-3708
4888
-4608
833
-668
1316
1122
361
-1580
-753
-2857
-1354
-2450
-4265
2737
1488
5566
508
2236
-1423
-2902
-2825
-4801
-2766
-2964
-2861
-3622
-3917
2770
-505
-2839
-4413
-4475
2288
215
-265
-3169
-2934
-2110
-3171
-4088
1484
-126
-3746
1779
334
-1560
-1230
679
-3191
-379
-3240
-6022
-5756
-2971
-4059
-3412
228
-1498
3576
4418
1285
5239
-3634
3911
454
2892
1226
-63
1805
3479
-933
2204
3259
1911
-1752
-2259
-352
686
2456
-4752
2449
2027
3974
-5706
1863
-592
430
-600
4790
-3755
250
4956
2278
-776
-289
170
-5191
-1343
11
858
-562
-537
-576
4459
5005
4955
-3354
-1882
1693
-2749
626
552
1638
4741
3340
1815
91
732
577
3847
5715
1189
5
1374
409
-13
-372
3635
407
1300
974
4096
5947
3735
4476
-1975
-532
-206
1137
755
5477
3217
207
1664
1225
4095
-67
421
-2044
-3591
-4361
-4719
-4407
-1024
4310
3886
5105
2814
-2983
-363
3904
4436
380
-3324
-463
-102
-743
2090
2171
1924
-4203
-2666
-703
4947
3888
-3292
2197
2950
4277
-5174
3604
-1578
2774
5885
-178
-5653
2919
4918
2765
-1811
-2393
4053
-5336
4854
3246
5677
5887
5682
4560
4737
4270
4928
-3160
-5183
4807
-3959
-3855
-1634
-1122
-491
1062
-181
197
-148
-1234
1511
279
-2534
-517
1997
-2505
1364
-2357
207
1088
3579
-3346
3010
1075
-649
-1631
235
1838
3336
2598
-1088
-889
1113
-2603
-1426
-3247
-2062
-2985
440
1446
-3432
-3545
844
-352
-3555
-973
1759
1919
-1692
-3927
2195
-1941
1702
1475
2079
2960
1461
778
-1590
-1908
-3005
-2
-4586
1153
-2304
2977
708
-1480
1395
1482
453
-1776
-841
3617
2068
-248
-675
-1909
2365
-315
1691
-1024
611
1506
1089
-975
-953
1643
-517
1876
-706
-627
833
1591
1872
794
-684
-1003
-69
737
564
1974
4218
4154
-1617
-728
1095
3691
2147
2747
2268
-2036
3865
-1627
4200
2279
2352
289
445
1621
5211
1288
-3199
1787
4561
3863
-1613
2038
1377
-3239
5680
3077
5661
-541
-3419
-2115
-3795
-312
-315
-289
-4471
4374
5418
4414
4087
-3762
3024
214
-437
680
-205
2739
4837
-5013
1322
5744
4334
-233
-863
720
3338
3477
-927
4295
2833
5058
-4824
-788
-5154
3970
5407
-439
-3232
3806
5465
3249
-3476
-1285
2571
-4799
2938
2807
-91
2498
3175
5310
5555
588
4590
-4441
-4683
734
-3179
-2058
432
-1788
-779
3199
3161
-1031
215
-850
-857
-2321
-645
1441
-437
1850
-427
4902
2381
1905
581
740
2228
2257
27
4120
3491
-1848
-3158
-1322
-2873
-2710
-68
2948
2350
-1191
-3945
770
2673
4492
2775
125
6065
5707
5785
-3710
584
-3768
-3226
3363
-849
-1039
-1298
-2802
3330
-1595
-4007
-127
-4143
-4561
-279
2746
3344
4163
-268
-3387
559
-1762
-2407
-1993
642
-454
4528
-3881
-386
-2131
3905
-4304
1086
-325
5388
879
-1024
4449
-4004
-3496
-2793
-2964
-3197
-2151
469
-2175
-91
6106
1884
-194
4774
2664
4203
-369
-1506
-1911
-705
2250
2548
2631
669
-2941
1518
4200
1722
1284
464
579
2486
22
5117
1860
2978
1802
2351
3297
3999
2338
-1237
3650
-1388
923
2304
1969
830
6046
-1421
3300
3426
-203
581
539
-281
4222
1200
-1577
-1201
-1265
-1344
2821
-3668
-4040
-5204
-4375
1186
-2549
-1323
4940
-2261
-105
-4537
1709
1567
5630
-3401
-833
3179
-5173
-1842
-491
4837
349
5106
-4490
-913
-3541
5601
-1206
-3192
688
5154
-2024
-3322
3655
-4043
-2784
-3752
-3039
-1506
-2596
-5233
-3758
-1545
3234
5018
-4810
4298
3234
1414
2532
-1707
463
-3557
-3906
-3380
-3806
-1510
-3552
-4305
-5860
754
-2160
-4553
-3399
-3928
-197
-3448
-2101
216
-1136
771
-1882
-682
774
-2636
-145
1575
1250
-1865
-1217
-2328
-39
223
-2976
-5520
-5868
-561
-111
-3875
-2235
-5439
2537
-1282
1273
-1427
-5281
-2819
1725
-1103
-1304
-5546
-2742
1768
-682
3113
-1880
1293
-3129
927
-4979
-477
2660
-1181
-3112
1674
1426
-2798
-140
-1004
-2608
3500
2873
-3918
-142
-269
-418
-2215
-245
-721
-640
2525
-3022
-1649
-2835
2937
-2546
-1010
2595
-1724
-712
-1364
-3391
-1605
-4955
-4445
-1473
693
5640
5480
1278
5452
4112
2101
5769
4937
3288
1640
6067
437
6740
4484
962
4022
6240
1713
4575
2545
4539
4461
2471
-54
5809
-1084
670
3346
692
1918
5854
-2130
2161
4807
3240
2153
6324
4647
2244
5628
768
1172
-3597
-3178
5084
-215
-747
2720
-257
1891
1478
-3009
-50
-3511
-3772
-696
3428
336
4103
-2396
1154
3845
1028
-3521
137
994
-3098
606
-1203
325
-1801
2727
-595
-1719
-2266
4608
-2641
-3598
1911
1744
-2864
3265
-1805
2340
-3712
-776
-3808
-1251
-13
3928
-444
745
4515
3987
535
2825
3752
-793
513
3256
5806
5342
159
5319
6425
4284
4520
-56
6557
3428
-826
5866
3547
4853
1927
-172
2811
3323
4898
3011
4032
-2454
1056
347
6526
800
3958
784
3179
6105
4641
794
4648
1653
502
25
-4612
-1735
-4521
-1962
3324
-2731
-1185
86
-2742
-29
1104
-1769
4152
-2861
-2717
684
2519
5846
1360
1700
-2045
4305
-3256
1529
-2081
3207
-3500
547
-4847
-2881
-3386
4973
1229
-2699
-3688
25
-1056
-2083
1468
-205
-1459
297
779
-3171
-4436
-1939
1427
-2001
4232
2861
-2463
1277
3763
5312
-401
-2981
-115
-3289
-1637
4633
-3533
2006
-3150
-869
2496
-3482
369
644
960
4974
167
-933
4861
-3207
-1130
-954
-309
2278
1436
130
-3638
-1323
-715
-3764
3140
-3195
4013
-2266
3658
5569
3749
-482
2242
1097
1637
4768
-281
176
103
-919
5138
-3518
-4381
-243
479
1671
-2058
-965
3970
-5638
-4423
-1025
5115
2393
4930
-4720
-3663
1748
-4261
-4744
-5434
-25
-4736
251
-2320
-1489
280
2958
-3706
-3271
-710
1555
970
546
1818
-557
-2794
-3191
-3734
-2459
-96
759
-4892
-5598
1270
5279
-4213
6058
1463
1737
1976
-5533
-5358
-3394
-2405
-2254
-4379
-1762
-15
-1484
-5417
-1492
-2423
-2063
-707
-4247
-2548
112
-1118
-3550
-1174
-4
-916
-199
-2410
-5225
-4687
-3139
-5559
-4992
2163
-5219
-334
-3057
2879
1289
2344
616
1440
688
-942
2351
897
-4615
-3648
-4988
-94
-601
-874
-194
955
3207
-1470
-4817
-504
-4362
-4268
-4754
4400
3029
707
-3694
-1008
977
-1499
-4875
-630
5114
-2790
482
327
-3693
527
3282
-3077
-3150
1277
-1548
-1215
-1977
266
455
-4951
1163
-911
-3826
-267
230
-4728
-3710
100
-1153
849
1475
3737
1123
-2414
2853
3702
4314
206
2833
3599
497
2460
443
1183
-539
5054
4704
4896
4706
3379
2991
6664
4317
1857
4973
3883
4910
4983
4468
3898
881
3316
2694
167
3870
5003
-164
1544
140
922
49
2309
1183
6365
6448
-3989
2053
304
-4397
1103
1811
-3266
3508
-45
1937
-3509
-1552
3563
-296
-2799
1314
3388
3399
5343
785
-921
3775
-217
1424
1725
2782
-2333
6437
-1964
607
1187
4564
-3662
-519
-973
1788
203
-1026
1087
-1958
488
-222
1079
1613
449
463
-3190
-848
993
4396
-1225
4770
3436
5211
2240
3022
-316
-1857
2240
-3829
-3699
-15
1558
-2870
-386
-755
-4228
-1822
-4762
-4496
-1580
-2881
-4057
2896
2333
-819
-3600
585
-1198
-1532
-32
1074
1207
-2341
-2756
2096
-3981
-254
-4895
-3943
-5338
-3081
-3192
-2424
-6630
-4407
5416
-444
415
4661
-1399
4078
1328
824
-645
-3144
5382
5079
-2959
976
4284
4487
-3998
-6043
-5795
4018
-863
-1347
4620
3434
3463
-3069
-924
-962
778
1941
2245
-4940
4044
890
1231
-2368
1792
1250
-5956
4397
1066
852
919
1836
2037
3205
2848
1512
-2376
-6925
1401
-3829
-3336
-562
2775
1752
-639
-249
-856
-335
-936
2388
-3492
-1657
1807
-113
2003
-1233
4150
2817
255
2271
4915
-2665
-1775
1643
2587
736
1352
2182
-906
-665
664
1666
1142
1904
-38
-2171
4589
681
5738
5833
6068
559
-23
3984
427
-2423
-5541
-3647
644
-787
-2717
-2545
-1361
2635
-5941
-1510
4615
-4116
-5546
-4859
1380
4522
-95
-2783
213
2832
-5740
-1584
-5184
485
-2705
3663
363
-3826
-3415
460
-1625
-1797
-1444
5644
-2823
-4417
399
-4472
-5916
-2499
-5736
-3709
-4863
-665
-5153
-3867
2087
2407
-4990
2758
1687
1564
598
2355
4498
766
3396
6045
5443
1474
3230
723
1281
827
3835
4778
4530
6297
-114
5848
41
69
3814
105
3233
1546
-428
4480
2068
1596
2858
1791
5506
-199
1781
-106
6620
2093
2594
3327
3717
6115
2591
3168
-866
1370
239
-4518
6070
-484
1650
-1648
1765
3972
-1687
59
6134
-4617
-2609
-4001
4816
1441
4221
-1199
-1478
519
-1489
-1622
-3051
571
-49
2677
1159
1587
-2666
5930
327
-1612
-612
2763
1375
-2670
1557
-1950
-1319
-1700
-1353
606
623
-4486
-523
-4071
1413
6058
-3422
2995
2788
1656
953
-2965
654
-2995
-1918
4074
-2143
-295
-3499
3103
-544
-1958
1711
-2613
2105
1673
-2704
3955
-26
64
1497
40
-2290
5088
-3026
-2035
3222
-1396
2071
-3204
2603
-598
2581
734
5784
5332
5554
4643
1851
4969
3558
2206
-1047
411
-2889
-4861
3969
-2353
-117
-5490
-1960
4747
-2571
512
3792
-5378
-170
-3419
3902
1002
3337
-1058
-1768
-389
-4394
-5071
-4366
4274
-2701
5375
-1078
-2913
-2893
1640
-4892
-3234
-1263
4127
-2322
459
5319
-1051
525
-4301
-338
-5469
-3166
-1655
-1170
-1824
973
1216
-52
5132
3352
744
-904
2836
5960
5229
2552
-2624
2832
4065
5936
1817
3272
2254
1127
3376
-2350
1955
1987
3066
2867
2958
6169
4784
6132
-752
5630
4134
3387
-83
3058
3546
-2659
6546
2006
1379
-1444
-3329
-3682
734
-2037
-2944
-2835
-4223
1240
4970
1741
3133
-4145
947
3165
2668
5569
228
4355
118
-1111
3786
1684
3657
-494
-2438
-1137
586
486
-2509
-254
1058
4498
-2771
3342
-446
2065
2947
3669
-3405
1782
6016
1024
-3183
2866
6187
-4792
2716
281
-319
155
4598
5160
351
752
2088
-3221
-3330
3232
29
-1709
-1692
2538
522
868
-1375
-3126
5175
-1147
628
-2190
-852
1122
352
-714
2568
960
5564
-1870
5121
1882
-1387
179
-749
3433
604
-1083
-1585
3392
275
-3699
2809
3874
-2295
1508
-5420
355
5150
1452
79
3845
3228
967
738
-2816
-5529
-1942
-2320
4546
-1148
-3540
-222
-2839
1846
-1881
-2086
3909
-4381
-3709
-5543
1298
2234
6002
-4016
-2665
1013
-640
-847
-2325
448
-3797
1827
-5620
-682
-3513
5885
185
65
-3949
-568
175
-3312
5690
-353
-5746
-2351
-547
-2879
-1314
-5842
-2331
-2825
4373
2682
-4392
5929
3425
2324
554
-4073
-2520
-648
1674
5245
-770
-3107
94
4416
-480
-1932
2782
-1300
2832
795
-2183
-1065
532
-2987
-439
-2549
-2497
2704
-4385
-3268
-1522
-1477
948
-3233
2154
-3025
4268
-5409
5615
2792
3605
3344
5412
5914
5054
5894
-2237
23
-584
-4719
-801
-5307
-2294
-132
-1784
399
-1538
-2156
749
-1566
-4130
585
1356
-170
3919
646
-585
741
-814
-5156
-3097
4648
-2001
2180
-5412
-4710
377
622
-1464
-324
-3480
398
-1316
-1974
2409
-3686
-469
-1613
-4169
-5655
-5691
-368
-4009
-2512
3957
5844
-3726
1634
1214
5863
302
5085
-1367
787
9
1663
4208
5745
157
3011
5305
3867
2686
4142
2621
5122
2362
6461
4153
4982
672
1774
946
3546
1235
3195
5864
-2283
1323
1743
3731
1340
3061
-327
5688
3818
5018
3426
541
3738
5003
-12
-3241
-1654
-849
-3114
1964
-5213
-49
-2495
2167
7
-4223
-1548
1902
-1189
296
-2493
4335
2352
5980
-3251
-990
3167
-5052
-1638
1184
5364
-4089
5622
-4161
-3400
-410
1756
-2913
-308
-4874
3243
1149
-1331
398
1557
-2215
-855
-5133
1821
1033
-2324
-820
-4283
1267
2317
1229
2430
1800
3001
-186
1898
-2814
-3067
-2543
846
79
-2703
918
620
633
-2209
698
622
5722
3754
-1466
1306
987
2542
-3304
1624
3675
3269
-4150
1776
-1770
-2398
-1290
2756
602
-2727
759
-6492
36
4329
4497
12
1895
834
1030
5752
-2576
-1212
-923
-694
534
-2883
150
-3057
-2017
31
-2158
-238
2335
-4951
-4851
-4952
3023
4618
6350
-1863
-5279
296
-1407
-2353
-3517
4722
-1297
4628
-2360
-432
-2061
1093
-3569
7
-790
5077
2177
-4559
981
-3373
-836
-4639
-1074
-2429
286
-1220
-5865
-6014
3706
2709
-3938
945
5547
608
-361
-129
2452
5479
2087
-3475
2207
835
4678
-1238
2571
5416
-4309
-274
571
-3740
-2319
-129
-4906
2736
5527
5397
4038
1513
5
5291
4085
-1261
3314
-724
1415
-1039
-2435
280
-2725
-4333
-3134
-4915
-2371
-2968
-949
-3530
3092
3284
-18
299
-2020
-443
1515
2528
4851
-395
2781
646
-3718
4795
4813
-386
-2867
-4326
-4421
3192
907
399
4419
-736
413
-3145
4437
-2389
-344
5756
104
16
3683
3193
4385
159
-2266
258
-3939
3263
4455
1494
2133
147
5859
1696
528
2316
-3414
-632
2673
-159
-1692
-4206
2128
2113
1951
-2375
-2802
2352
5358
3095
-969
2828
3827
950
-823
3113
-566
486
-1629
4436
2927
2852
1552
187
-245
4882
3543
3158
-27
-1484
-1086
3570
5293
-187
2741
-10557
5619
520
2605
4921
4195
2389
5216
-60
-5619
-3042
-1327
669
576
-5753
-159
-1142
-1941
5091
-3580
-1565
2494
319
-2546
-5315
-140
3020
6090
-4445
-859
5852
-2998
-3335
-1549
4306
-4064
3140
-5972
-5413
-5004
1130
-3863
-4221
-2326
-284
945
-5855
3829
-3232
-747
-4620
-1170
-381
-276
-4210
-4480
133
4799
1110
-1178
5497
640
4792
1405
2137
1371
-1803
1292
864
54
1613
-434
3492
3760
-3069
212
60
3596
111
1603
3095
4983
-732
2584
-1311
1798
596
-2446
-1306
-909
-1919
1981
-1720
3775
-627
3755
-2146
3603
2950
704
1895
3067
892
4584
5734
-5298
-185
-4369
88
3610
529
-5030
-6364
-6083
3477
-6024
-4589
5981
-1169
-4545
-3354
-155
5478
3040
-3220
-4488
4285
329
-2150
371
5461
-2572
-1025
-4480
-5579
234
3905
-934
-5379
-946
-193
307
256
6027
-3490
-545
-4949
97
-1438
-1254
-3011
-814
-1771
2170
-660
-5618
1403
3505
182
-15
2292
3668
1503
3667
-1486
1577
6617
5839
6284
2657
3416
-89
2980
2407
194
-540
2199
193
6685
6021
2921
2833
1998
1277
2601
2564
2908
2559
1279
-538
6586
331
1604
-1438
-293
-952
218
-3057
-341
-4582
-2175
2420
3754
1602
5523
-1374
851
8
3356
4916
-4482
2303
3357
-5110
3778
4519
4596
-2667
-2217
-5311
849
5814
-3569
4657
349
356
-5691
2931
-2124
3519
2630
2098
-4058
2778
5801
1030
34
-2909
2381
-118
935
2315
2873
4971
3400
2070
1112
5344
4258
-1464
-2618
1567
-5529
-501
-4929
12
1818
2100
2720
4138
-7
1115
3703
189
3176
1368
5308
2907
378
-2972
1256
-1179
1267
-3016
6451
6427
2562
1773
1808
4048
6621
4355
-1785
2922
3311
-3030
6341
1275
4353
-4840
-3294
-2194
-1635
-1593
-415
764
-2714
1987
4476
-497
2188
-3368
-492
1013
5356
259
-5180
4976
3391
-5327
5342
821
5054
-2148
-5331
-3249
4601
551
-3940
398
1343
4516
-2579
4311
-560
5446
1571
5705
-1303
5778
2371
5674
1392
2076
5739
-1212
5049
3742
592
2585
666
1224
4355
-331
4613
-5236
522
1198
231
-3943
-4567
3107
-3967
-4249
-3504
-2186
814
938
2047
-2260
-190
1485
-3194
3263
-232
3014
5404
394
2776
5177
-3195
1852
494
1170
-1417
-1229
-1910
-3212
1602
-2458
-3703
2996
2444
257
-821
960
3458
5957
1648
5477
6169
1459
1250
-2051
-4304
494
-5011
94
-4658
-2314
-3032
-769
3626
465
-4933
494
-3603
-1808
196
5105
3807
2701
-1071
372
4854
-222
-2455
-4988
4454
-2043
4357
-4589
-1927
123
5537
-1509
-2837
-3179
2265
172
-3478
2596
-2048
-4111
32
-4237
-3167
-184
-3999
-4199
-21
2
230
-1447
2299
269
1749
-700
1473
3335
1622
4536
-1009
-989
2754
1768
570
3937
3434
2799
-1229
1337
-716
-1960
564
3671
-1331
3071
2916
3050
-279
3011
-22
2506
1813
-2333
4290
3650
4874
3982
34
628
4818
446
4866
3419
6155
6334
431
-1034
1958
-2135
-1589
3496
-2024
-2566
2486
-2135
6199
-1325
-3552
2693
-79
-751
435
5678
6263
5989
-2170
1699
1668
-2671
-324
2325
2485
-237
4648
-419
1779
-3581
65
1337
2059
332
3595
1460
-1055
2990
1887
253
1578
1991
2366
-1732
2475
-2540
852
5749
172
-1484
1392
5247
3858
2754
4193
1702
3332
1356
-4089
1553
5177
3314
-289
2319
5466
-1467
4605
-3651
-1538
-1822
2639
-4334
1165
-456
-11
-962
-2832
5079
1562
1834
-310
4976
5062
-3234
2853
2039
-1017
-723
-2366
-2668
-3032
-3478
-3072
-5225
-2116
957
3260
2912
5725
-5068
5207
122
1820
1940
-4983
4161
4384
-5283
4909
1957
-1066
-1086
-1068
557
1392
2219
-14
5207
-600
1243
-4065
5416
-4086
5647
1282
5377
-3684
-67
4288
5187
1039
237
1512
-4449
894
181
1661
363
3464
1778
-692
1724
1115
-1156
-2426
3037
644
209
-4022
-3067
4592
3433
219
5340
-4134
1137
250
4798
-1818
383
5293
-832
4358
-3201
-1279
2258
-31
-4395
4425
5567
5153
3629
-4982
4461
5795
-222
-1781
-241
3057
-1704
2888
1165
1536
-2961
-4838
-2891
-4277
-2733
-2310
932
-998
555
1329
2241
3449
-4614
4967
301
214
5173
-5115
173
52
-3765
4065
4461
1544
-2359
420
-1909
323
4294
-5731
336
5766
3331
-3490
546
-2730
177
5293
466
-3635
3052
2182
755
-774
-1404
1802
-4262
1754
-72
1758
5460
5546
140
-275
3141
2181
-4256
-3397
-1231
-1371
-5128
-4597
67
-278
-4672
-2459
-1581
492
-1148
-995
-5834
-893
-5345
-1787
2896
-1034
-197
-882
242
-237
436
-4504
-2586
-1897
521
-3674
-1503
-1064
-4710
1702
-5291
-3147
-2734
-2363
-392
-1586
899
674
5342
2611
147
-966
77
1778
-2127
1213
-3472
-1569
3884
712
-2180
-5147
-61
357
691
-3767
755
-4151
-1613
979
-2052
-139
1703
-2351
-3934
4509
-56
-4341
-3649
156
1084
2966
-4875
-1049
-3035
1496
-655
-4247
-814
4525
434
-1749
862
-1539
866
-75
-1589
-3794
-544
-2843
-4995
-1050
4970
-1562
-5225
1864
3741
2980
-138
-1354
3433
-803
1096
3035
2121
2599
48
1618
4999
-1379
-744
-435
3394
2261
833
4762
1984
138
2257
466
5444
48
4709
2724
2089
-581
-1591
1552
4470
4238
3052
1877
6277
4621
6101
3097
1588
4358
2302
3635
1282
-4232
-2077
1007
641
29
2585
2149
1556
1799
1161
-808
2150
-874
1360
-1352
4707
1174
4132
1021
-1915
6718
-4308
-1840
-1243
5638
-396
5815
805
-974
1215
5639
476
-3121
-4257
4234
-1014
-3424
1138
231
-2218
-1578
-3926
1032
2366
1263
-923
-2675
6346
4932
-1032
2338
484
424
-9
-2193
2297
2038
-2037
-2521
-633
-1640
1018
-2715
1796
1350
-3480
1709
-1137
-1523
2090
845
-1104
-60
-77
1595
-1810
1158
1802
-3488
-3773
1238
-1291
-3310
-1144
1458
-4392
1169
-4840
-4214
-2342
-4132
-6493
-5869
-6986
-4937
2364
2364
2878
5169
-4304
4166
-162
48
3724
-2931
172
801
-6705
763
3309
-1071
-5918
-2363
-2212
1187
4197
-357
1879
-1161
2395
-5992
4943
-5780
4904
2148
2210
-1487
3941
2449
1319
-4620
1001
-315
-5106
2974
2463
3747
3335
3279
-570
638
1019
3065
-3703
-3527
-1582
-3678
-1552
-6487
3303
4596
313
3183
3130
-2572
5045
1637
821
6300
5099
2582
-882
1467
-2107
1816
1501
1809
-2240
2974
-70
3514
5734
3366
50
6138
3649
391
1125
1488
2828
573
1739
6673
-5613
-611
-4719
-3521
-4428
-3177
-5364
-4345
4449
5580
-720
4448
-3650
2590
-537
5132
417
-5291
-172
3827
-5205
1193
4633
2828
-3503
-4318
-4548
4755
453
-5230
3492
-506
5415
-1215
3275
-694
6067
2071
5474
-529
996
1434
2862
-4363
630
4149
-1439
4999
5635
236
1226
-225
-246
4882
4738
3717
-839
-3538
5536
-5667
-2680
3
-1257
-1616
-1286
-787
-1855
-1277
1305
-1748
-2515
-879
1439
-1397
1574
-900
-1321
1271
129
1214
4580
668
1537
-1615
-912
2705
1605
557
2375
-407
-4843
1965
-1222
1358
773
-2816
1921
1740
4921
3771
4535
5842
3176
2529
-5710
-1214
-3949
-362
-789
-3662
-5603
-4683
-5515
1353
-31
-2532
1757
-2317
-2859
-1299
-884
5456
5997
-4903
-4688
6045
-4503
-5130
-5648
713
-824
4979
-1285
-5939
-5280
7
-1715
-2902
-2138
-119
-593
-5149
18
188
-3951
-3237
-3700
-5733
-877
-806
-2484
-5565
3575
1466
-4171
524
4109
3873
-1957
-73
562
3836
3837
347
3430
5206
680
2295
3207
1247
1296
745
-908
-516
-3253
1848
-1378
1801
5002
4055
2683
2957
6134
3417
5453
-2553
1594
1351
-1403
861
3870
2806
-680
-3200
-901
-3035
-4650
-240
-2360
-1421
1595
-170
2523
-268
-4268
4788
3412
5264
-380
-4037
4365
567
-3726
3485
3375
1667
1598
130
-2481
601
4898
-1484
3530
1097
6036
-4387
-735
-1340
-254
3803
5694
-2040
1659
4818
2397
-748
-2484
4835
-4141
2305
2147
688
2842
5988
5366
5023
-151
2996
-393
-1373
4095
-631
-2891
-5155
446
-4462
-1578
201
318
5259
885
2393
874
1393
-857
-788
3773
-3118
433
548
-2794
-1220
1548
362
-3468
282
-2180
1149
194
-4162
-518
3164
-903
2310
625
-2961
-379
853
-142
5772
5626
1134
4070
4048
2495
3966
-5854
-730
-2400
-4306
5494
-1996
-4509
-3261
-3644
481
-2333
-2571
-212
-1245
229
-2328
579
4346
769
-4193
322
1920
-4496
-1685
-5887
1022
-1998
2310
-2629
-3815
-4964
1677
-1550
-3562
18
3887
153
-1731
3880
-1784
-4074
-5114
-5679
106
-958
-1209
-4085
-2668
1637
1717
-2314
2572
3744
4741
-1967
-3304
230
-1063
1119
2006
199
1159
1949
1605
2887
-2118
-656
-2509
-467
-454
-2140
-1884
2680
-1989
-3704
-3695
-934
-1209
270
-3894
2726
-665
1293
1609
4072
-2228
555
-2988
730
1658
3313
224
3235
726
276
4099
-1451
-4747
-4717
-2403
4922
-1625
-4237
-4659
271
2799
-970
-877
2659
-3186
-1145
-1148
4205
2347
5755
-5723
-5818
6067
-3512
-1665
-5450
4266
-2321
4355
-4442
-948
-3409
5449
-2721
-4947
-2923
3466
2959
-4082
5494
-3115
-3637
688
-4218
-3927
-5563
-2938
-3080
-896
5430
263
-3489
3857
-528
6067
2998
609
-4948
-3286
-3456
-1666
623
-4355
566
-1095
-416
399
-3332
-3975
-722
-3594
2426
-5769
-5076
-5181
498
-3980
-4790
-3839
-5160
-4859
-5206
2296
-530
-675
-4990
-5313
566
-1601
-5237
66
-5138
-1798
457
-86
-466
-5308
3104
-1012
-2376
-963
-5337
2643
-1673
-3930
404
-1722
3302
-2216
-5348
-1055
-98
1872
-4933
-4887
-40
-3358
1568
-2608
47
-170
2052
-4985
-3677
-2980
-1206
2843
-1230
-2170
-1941
-1443
1529
-4619
-1542
923
-659
-1698
-1690
1332
-1922
-554
2544
1365
-93
-1228
-1039
-1265
-604
-4343
-1753
-2950
-2256
6334
270
6260
68
-1582
5348
3006
5651
1692
5800
2895
1024
2243
150
1165
1364
2869
-477
3799
6663
2491
-25
578
6054
5410
1536
-3521
3201
5950
-33
4034
3838
5750
-360
-372
-2078
-1784
-5583
255
-601
-4859
3105
1168
3910
-534
-634
5421
5081
5683
2211
-2596
2267
3964
-4699
3092
412
3524
-4795
455
-1950
2460
4198
-2081
4304
4785
-66
-4199
2477
-1429
4841
2359
-526
-3091
818
2987
5765
-339
1570
3485
-5177
3897
2228
642
2856
685
2361
-18
3844
5272
-2135
56
2305
127
-4956
-324
-2247
-4206
-2350
-4982
-5264
-3751
-828
-1152
-5384
-76
-3456
-2649
-344
-2521
-4052
-3609
1973
-5113
-1888
-1754
-2815
-1737
-4316
-5415
-2224
-3233
-3704
2634
-4142
-444
-3859
-2609
-3108
646
-2006
-2396
-2479
-1619
-843
-1648
-3158
-1370
-2345
-1565
-704
1385
-397
499
175
-1876
-4324
-3339
232
-2693
-676
705
-4493
-747
-1362
-5084
-4370
-2064
-110
144
-2203
-4176
-2129
-2552
-41
-4466
-1592
-2925
189
-386
-338
-4367
-3552
-2666
-1017
1167
-2425
-2532
522
122
1617
-1774
1342
-2121
-1168
-2437
-2786
-3881
841
-3750
-1540
-2179
1900
-206
1259
4282
2784
-356
1540
-758
-1841
779
-1588
2218
2086
1135
4863
2237
2211
568
1612
2368
-296
4260
4519
-1541
175
-56
3265
-774
1589
3361
69
2369
830
-2535
3158
7074
4299
2592
3739
6701
5846
5008
-3150
-2430
989
-916
2655
-1748
-3269
3002
210
3422
-2433
-2584
2758
1158
-2548
2941
6162
3700
2146
-3316
-2307
4594
2686
2275
-1527
5170
1123
7280
-3144
-666
1337
3954
-833
-571
-703
6778
-1878
-803
1979
64
2201
2534
2598
-3276
-83
1921
-2853
-1501
800
2242
-966
3283
2146
2553
265
1359
-1279
-1767
-3483
1465
2568
918
1829
2998
-55
-764
-379
1385
4088
5828
2738
4805
31
2801
320
-190
-1915
2554
-3329
-734
-834
1483
-2689
1403
890
2424
2010
-5783
2319
3622
770
6078
2375
2218
301
2118
-2989
-358
-5033
-1957
1365
-4313
-653
-4600
-5532
813
-5868
-243
6193
-4417
-3482
-3199
5170
1250
4627
-4875
-2273
5963
-268
-3234
286
798
622
2755
-1955
-2682
-4121
694
-1289
1041
-2019
743
702
-597
3003
-5553
-4681
-4566
-3631
-433
-3416
733
-4793
-4712
4060
3116
-4673
6000
950
708
156
-2092
-3491
-1530
2504
-1274
636
-3523
-3985
1383
805
1495
653
-3748
2216
4477
-2640
-1820
2375
2920
-714
-3528
2920
3108
-2571
-1117
2158
486
627
2034
2646
-2734
3232
-2874
5053
1483
-400
1595
1751
4860
-276
5773
-2628
-5867
664
-4040
4072
-3107
-4092
-2310
-1884
5414
-3827
-2773
5756
-5403
-3255
-4259
-340
1574
6007
-1933
-629
1031
-3753
-4371
-4698
3636
-5664
-682
-1829
-1518
-3623
1743
-4938
-5158
-1863
2258
745
72
4393
563
-5879
-6022
-1410
-454
-485
-1966
-3556
-4018
1877
5132
-5338
5851
856
1152
2997
3174
966
5249
-267
-3135
3386
2683
-710
-820
3210
1116
147
3251
-1028
-2826
-75
3281
-3727
-672
913
5024
1831
-2131
5213
1316
-824
579
4698
-421
1938
3475
835
5313
-498
-4325
-470
-4077
583
-3785
-2803
-5035
2175
1997
3290
4312
-3953
3279
3927
1121
3887
-917
5527
5619
-3415
5668
4870
4945
-3099
-2294
-110
-551
3973
-704
614
2341
3564
-5289
4797
-5156
4887
4554
1730
-813
3341
1372
5630
-3532
2493
5668
585
4450
5052
1045
3960
3028
222
-675
4020
4387
650
-3306
3620
648
-5513
-4610
-1244
1858
-998
1451
-1070
-3713
-2055
2666
-2451
-2437
-2889
-2693
-4504
-2688
-72
-1412
-1053
-3003
82
1731
161
2887
-1395
-1694
1112
-1332
-969
607
-1589
467
-4508
2250
-2875
-1160
-1028
-7103
-6936
-2906
-1654
-4704
-1034
-6999
4693
4577
4869
2702
-4365
-119
1904
3543
2438
-5114
-776
2278
-3720
-615
3054
3054
-1596
-1773
-5415
-758
780
-2424
1373
-465
1977
-6592
1560
-3705
5081
-294
-562
-4284
5126
4491
4351
-8877
-893
-78
-4628
4959
2354
3847
5561
-369
4778
-874
1589
-55
-809
-2153
1676
-1295
-1374
-3231
3310
4431
1224
4637
3797
4847
1062
4250
-1209
-269
5922
4662
6110
-1554
3265
4972
-2803
3895
3734
-211
4304
878
4904
3089
2767
3932
213
3147
-1445
-553
182
3460
2066
2283
3538
4924
4195
4943
2754
-91
2655
1050
416
-3390
-789
656
3463
-5115
1324
-4487
-2803
2790
-4164
-3458
792
-2483
-5700
-1651
2664
4244
38
-84
-3070
2982
251
438
357
3513
-3514
1422
-2375
-2236
-4775
2134
-1990
-267
-4252
2217
-1292
-1322
3541
-4776
-864
-4379
-5731
-777
-3599
-3461
-324
744
248
278
-2402
490
-120
5523
1305
2530
-2649
626
-2823
772
-303
2284
-1088
-4054
832
2598
41
-1948
-3472
-3593
1644
-496
1072
-2591
259
-1398
804
-774
2764
2431
-2861
-3639
410
-889
-794
774
-2203
2764
-1946
-2159
-1919
-6365
-6014
-3853
-3399
-6016
1476
939
-1213
52
-3125
3783
2942
-2083
-1558
-1995
-938
3727
-7206
2224
2682
3737
-4284
-6290
-6524
2877
1532
-5989
3046
85
4888
-5202
4220
-5388
92
605
1731
-2986
4767
3928
1168
-3184
2677
4194
-5167
1379
2687
-2103
-84
1773
2260
3802
1803
1887
-925
-6291
466
-5375
-3888
-2454
236
-362
-849
5027
5217
5602
5322
3912
5549
-980
1203
2089
5949
3609
5276
1698
-223
5878
1179
688
570
1916
4732
5091
4016
1032
766
2232
5358
5186
2563
2558
1705
3870
4001
1707
5500
3616
1002
1064
1364
3834
-178
-795
3425
3139
2999
165
366
4651
415
1922
-2461
-213
1936
-620
2296
2422
5677
5232
1807
920
2714
3327
-1044
1117
-1991
1443
3503
412
2030
3981
3810
3488
-2092
4372
-1516
2943
-1857
2056
2790
4511
1453
1466
-2254
-739
2161
1244
-18
261
4211
4614
-1467
594
5989
2795
3158
2050
3172
53
1674
-1125
-1411
-1044
-473
-510
-1651
414
-1681
1604
-5664
-2861
791
-593
-3716
-2792
378
-2472
993
-3190
3389
1779
-2951
-1034
505
1096
-4156
689
-4573
-1912
-6988
-2575
-4754
-1222
-6557
-6792
-4579
-4537
3416
5114
3606
-436
-3189
5199
-70
3876
3019
-4608
1609
4167
-6100
138
-1132
-1734
-2175
-3913
-1657
1007
3538
-5506
1
3026
4010
-6685
1242
-2379
1831
-680
2115
-3038
5070
667
3221
-4386
580
-151
-4647
-1306
5408
3551
1605
1336
-259
3664
4682
-390
-4904
-1134
3085
-3020
-3247
-467
2146
1673
-247
209
-2913
-482
-4067
-2177
2169
-2891
-1050
3073
-4756
-2582
-3354
-3519
-3180
1915
-1548
-2984
1763
-3074
-3113
-2692
-489
-2808
1674
-2998
-1865
406
-3769
-93
-1716
1099
-7440
-3363
-6102
-5205
-4240
-4544
-3263
-6584
3512
2635
1399
1070
-2780
5132
981
-604
2500
-6712
1960
167
-1748
4150
2796
-1787
-2879
-1146
-2699
2336
298
-4853
2449
4388
5382
-5917
3926
-7265
2957
1856
3404
-3374
4226
2855
89
-7708
261
2908
-3789
-184
1303
2753
3557
-1215
4227
5491
-355
3536
-5880
-3945
4699
-6384
-3408
-4860
-685
1815
-849
3432
841
1312
2865
-198
1676
962
5988
-339
2603
2443
3297
5784
-1521
3371
2624
3336
1329
1834
1380
5066
-656
1266
2728
1256
1275
-1351
659
-1003
2200
-865
3462
100
-415
1490
704
1161
2242
3491
90
-2548
543
-4552
1243
880
-1623
-2092
-4798
739
-5505
-5416
4659
-1124
-4227
951
6094
2671
915
-4686
567
2587
-2144
559
-5223
2568
-401
5279
-2204
-3832
-4128
5329
-1062
912
-1631
-725
-2729
-5602
6007
422
-2301
85
-4554
-4311
-4360
-2195
338
-5063
4101
4029
1258
6057
4336
6110
-469
4751
2930
2573
-487
-428
3293
1827
2940
1779
-1474
2779
-1509
3124
-2539
-2422
2046
2420
1223
5914
1106
3309
736
-2902
4880
1509
4696
2883
619
1200
-285
2281
-2234
67
-5077
-4781
-3068
-5023
-1478
-4953
-4256
-634
-292
4725
2205
3796
-3698
-427
1463
2503
4531
-2112
2013
2179
-1262
-381
1040
5165
-3367
-3979
-5773
2503
-375
3
-507
5419
-144
-3673
1861
1216
866
4606
2288
-4335
5711
536
118
-468
-2805
971
-1381
-997
3473
-412
-555
-826
3774
-768
4787
-328
-2398
-3573
279
-535
837
-961
90
4900
-1093
3429
3384
5856
4436
4489
1766
-669
86
1449
968
2516
3625
5069
-2957
4776
5265
-765
-965
2891
3351
2466
5406
1171
4228
3421
-1735
1304
281
233
-227
2213
6567
6150
3492
2389
5275
3192
5814
2812
1444
-1373
1328
-3808
2091
328
-713
-1761
1591
5407
-4530
-4816
6997
-316
-4650
225
3381
5346
4939
1200
-972
3976
-621
-3968
1027
4403
-310
895
-3410
-761
-3609
1603
-3602
-173
-2511
7524
-1399
621
7125
1200
-3121
1078
1515
-647
-674
-1058
127
-3115
6937
3725
-791
2826
1420
1312
330
4368
5055
1590
2688
-2286
2915
2351
1921
2181
4642
3297
704
2111
-1993
1490
-193
2028
-1266
5834
5894
500
4459
1669
4006
613
1298
-693
4648
5829
-2373
1649
2346
2276
-4936
-4980
373
221
741
-664
-2331
-1548
261
779
1972
3827
-4513
4556
1397
4305
5726
-3524
6050
-17
-2484
919
3135
3317
960
-1039
-4857
1840
3972
117
5989
2900
5454
-1418
3421
-1230
5642
5009
4403
-3627
4058
3946
4099
-2437
-3077
2218
-1722
4708
343
2392
4600
-28
2248
1666
539
-192
-2459
-1837
2830
348
-2629
-1350
366
-785
-1378
1557
-1172
1882
-2102
1111
-3333
2412
1046
224
-145
581
343
-251
-2491
3818
5452
-3037
-853
-3902
-2131
2359
1008
-24
-2737
1902
-4157
2033
-658
-130
3171
-1163
2346
2474
4773
1440
2774
2208
4965
-252
-3207
-3531
138
-4229
3658
713
-4815
-256
-900
4472
-3104
-494
109
-2354
-2654
-3803
-280
3830
2421
375
-2380
4583
-5055
-4627
655
4613
-1687
4597
-704
-514
-5802
3979
-2345
-3485
-4886
-177
-1760
-3983
4540
-171
-4491
-3506
-3292
-1605
-5277
-1962
-1239
-3356
3566
3677
-398
4207
1395
205
-1652
418
4748
2371
3943
4805
3258
-348
2560
1283
3679
5039
4036
-307
1993
5962
1748
5653
5626
3764
1873
4377
4030
1894
2873
1816
2769
2963
5132
3065
1269
100
5638
-439
5086
507
4666
5788
997
3206
1034
2232
-4179
-1724
1375
1354
5501
-804
631
1336
-2737
2363
868
-2548
2790
-2538
-2231
-2674
2288
4236
1685
-1360
1755
594
-990
-2933
-4814
5105
-4086
2787
-93
-2567
-2530
640
-1929
-727
-1253
1785
2003
-1819
2858
-686
-2131
352
-3357
-1415
-1472
-334
-4310
-374
4421
2457
-585
1933
4093
164
-545
10
-861
-2244
-939
-1670
-766
535
-1232
2034
1185
-678
-5085
361
-2372
-1427
2049
-3851
-512
2069
-1671
-914
757
-240
-281
867
-3526
-3026
-2655
-2597
-1411
-3032
-4747
-1490
-4029
-7747
-7129
-5151
-5121
-3155
-5778
-4457
-693
4831
3712
3096
-3286
2694
3990
187
-1788
-7275
105
575
-3972
990
2649
3424
-5493
-7311
-7616
1135
3094
-6047
2058
4843
1827
-7633
-1495
-4618
3650
5020
3516
-2626
336
2878
2349
-8944
-2872
5009
-3117
4072
3671
4443
2118
1907
4833
3794
4068
1053
-7799
-8039
-532
-6427
-2479
-3022
939
2339
-1120
-1627
142
-2600
-3625
-966
2725
-3288
-1942
-2034
-4065
-3594
154
-3527
-2149
1481
1825
-2747
-2413
1393
1986
-3114
2442
1894
-3380
-1482
-427
-356
-820
-1702
-660
-1055
-5957
-4229
-2338
-252
-3856
-871
-3805
-152
4362
5392
4824
3870
-5120
2749
1047
1531
674
-5128
3370
2781
-1500
2615
3822
-1110
-1714
-1545
-3190
1336
4501
522
1178
-551
1016
-2957
5323
-5451
2385
4431
5630
-2649
3926
4672
588
-5102
1897
1333
-5042
-118
681
-1460
349
3909
2652
4488
2129
-81
-1526
-2918
-553
-2375
-2172
-6086
-2435
5402
577
3620
4213
5235
2286
3270
5552
695
471
5326
1822
2634
-758
5651
-1455
6390
2724
5621
5995
4375
1535
3445
5066
3805
4609
1121
503
4587
3722
3971
-612
5821
-118
-3864
-4362
-232
-739
-4450
-3708
-958
4310
4711
3356
3840
-3904
2805
-856
5382
1712
513
10
2233
1191
5252
3906
948
-398
-316
1243
5426
-590
1103
4097
5144
356
-5269
5448
-3771
1921
5124
-241
-1550
5544
1612
-609
-250
-2822
4875
-2719
4185
3738
4625
-37
4251
1798
3247
1468
3299
-3659
-1103
5478
-524
-3168
-3151
-2569
3549
1717
-2134
-792
-4425
-2941
1062
-2136
-3340
-909
3313
-1452
-166
-5030
-407
1398
160
-7
3196
-690
-953
-3309
-5524
-1667
1836
-1322
1040
-982
-2840
-4912
-2454
5
2700
-2870
-5430
-3135
-3765
-4272
-254
-935
-4999
4396
1940
1745
3417
-6296
2911
-1181
2554
3944
-262
4687
312
-5249
1714
1028
2464
-682
-849
-3118
4676
2724
-2580
220
849
789
-3119
-988
-5769
3036
5640
4089
-4700
1026
576
5592
-7183
-168
4896
-5298
-756
1194
4483
5141
-969
27
757
2208
4687
-1668
-2037
175
-5001
-1063
-5877
-2443
4630
4115
5237
5143
1025
2213
764
924
4350
2311
1103
-103
4648
-2670
3520
684
1689
-2915
4427
3661
6399
5465
3969
5373
3516
2625
80
1765
2481
1055
6413
672
3324
-1866
-2688
18
-2467
-3336
-4243
137
-4361
4405
4808
424
6063
-2285
3751
1913
2378
3611
496
1335
2767
-723
3880
-483
3384
-507
-1168
-5220
4677
5617
-4102
3063
6057
4533
-1903
1038
-4669
1116
5186
557
-4839
149
-57
935
-2969
1388
6157
-46
3806
5540
4177
728
10
3029
347
-157
5084
-4601
-3253
3254
693
-1277
-4847
656
-902
-5186
217
-4270
-2255
1014
-4295
-561
586
952
-1863
2936
-539
3737
670
-2045
-4357
-2298
-2139
-197
-3462
-2958
-2098
-5091
-4731
-4691
1316
-4834
-1522
-2272
-3471
-41
1483
-575
1676
2293
-901
-90
2440
2189
2100
-2427
925
-2330
-981
-517
-3570
-717
-1912
-3068
-699
-1708
-5246
5364
757
748
-5317
4572
-216
1104
-4279
-1064
2796
-4728
801
-5269
3292
91
3185
-2735
-1895
-4971
2686
1091
-2971
-3583
4873
2387
-394
-27
555
-1709
-537
-5428
-5263
138
-218
-1542
-4780
1335
1321
-4897
1811
4723
4490
465
5193
1219
1625
1589
-407
3926
5608
5729
1992
-688
4793
3599
1411
786
3506
74
-338
576
5897
4450
198
6378
1826
6232
4033
337
-221
5770
5318
-1925
911
155
2562
-4248
-4667
-4067
-4960
-2081
-3998
-2093
-1412
-53
94
6
3502
-2519
4172
3227
5466
1812
-3506
3836
129
-1668
2272
2967
2221
-4444
526
-879
-105
2959
396
2834
4463
1333
826
-245
-1724
4966
3829
227
-3774
3207
4092
3421
394
-2090
2257
-4484
3920
78
-80
-219
2168
3068
5227
1940
6111
-5639
-1269
-659
-2695
-4773
-3223
581
3281
-500
2387
-2244
2161
554
1627
-1775
5320
5882
3216
6368
2592
2927
2335
1885
589
4860
3425
-1253
-1771
-323
1278
-527
8
3884
-632
-1442
3750
2797
-701
6239
-1103
4041
1652
1026
5398
2181
1861
5843
2501
-5232
-4890
-1577
-3593
1012
-1946
-1999
-3310
-3353
3188
-759
-2800
605
-5323
-3436
-1694
77
3778
4413
-5494
79
5070
-892
332
-3104
2601
930
346
-3508
-4071
345
956
-3791
-3845
-3588
3437
2048
-1349
447
-3256
711
-2064
-4910
-4112
731
-1901
-5546
-1916
2348
44
-2674
3345
5513
6119
-3105
3469
1730
4992
-195
-2
2918
2956
3995
-3919
1236
767
-1707
3221
-4928
-256
-873
-3216
-3082
2276
-383
1638
-944
-4465
4974
4597
1470
826
-1608
-1827
-740
3441
-1734
382
-544
-657
-2775
-2916
-1352
-5677
-4827
-2062
2350
5114
4969
1747
-671
-98
4466
-738
4222
-763
5284
-444
-2803
-484
816
139
-5827
-1492
-2202
4313
-443
358
1579
2216
-540
-5024
1075
-1064
1624
5359
1572
-4233
-431
2193
-25
-1161
-2815
1054
-2780
3414
2194
1370
3495
4647
5464
3860
2147
2104
-807
-1722
-92
-4237
-1439
-4625
1158
-3160
-2016
-3105
2637
-2589
-3812
-3628
-1893
1751
-2249
-349
-3449
491
-2893
-1465
-954
-73
-3178
-2833
516
-1840
-2024
459
294
1658
1440
1766
-2359
1015
1712
-562
-81
3656
-4039
-5863
-1370
-1459
-3597
-2111
-5302
-5807
975
3976
4985
3108
-1277
4864
2709
-313
1741
-3263
5714
-241
-2846
4018
2810
2428
-4194
-6189
-3823
362
-660
-5910
-149
1559
862
-560
3414
-533
4937
5160
2815
-2750
-539
164
2166
-6243
-450
3218
-1714
2447
3579
2863
1659
2864
20
-918
4189
731
-3134
-3438
4529
-2961
-4082
-6109
-1644
2809
6479
2211
4169
3359
1149
1463
686
5447
4205
2074
-1575
1622
492
2232
-1811
908
3242
997
1226
2021
809
-770
4444
3568
4885
-2513
4937
3529
-1021
6251
3422
5370
-4250
-1441
-1422
-3881
258
-1443
-4647
-2960
2041
958
971
2697
-2185
5358
1527
6009
1175
-1473
1762
2383
-1024
5167
707
4669
-247
-1984
-3905
2860
1695
-4461
5268
4725
1194
-3320
1017
-3524
2188
4750
197
-4867
1568
3054
4502
-768
2181
552
-4371
-395
3645
6057
4869
2707
6216
4121
4998
3407
431
-4554
-191
-676
-5518
-5051
1818
4558
3445
4486
4498
3047
1495
2102
2360
1566
2267
6466
2051
3064
-790
2807
1380
4755
-2191
4834
2153
315
3457
-1963
2015
3904
2025
-3527
4720
4540
2816
1628
-1350
1839
50
-4173
-5460
-4313
-795
-5299
-1953
-338
2590
4187
-229
3049
-5066
83
4134
3620
2979
-1733
2166
3659
-4839
-508
2210
1700
-3810
-2459
-760
2575
3395
-3131
586
74
1092
263
988
-1438
5849
3995
1274
-59
1481
5489
2358
-3648
-513
6066
-4315
5814
3192
937
3515
4177
4098
12
3945
4251
-2572
864
5143
-5336
-4676
-4686
-2310
2201
4487
185
5798
-1377
4619
341
-408
3606
-2104
1917
742
5784
-4692
-2015
-1556
-81
-27
1182
5306
-555
2966
-3718
443
1758
4735
-209
4130
4003
-366
1094
-2263
1818
-3018
-768
-5334
129
-2717
-4295
467
-2267
5728
-372
-242
5509
423
322
953
1053
1121
-2003
-56
4236
-3280
5104
4708
4384
-3906
-5040
-3688
942
5151
112
4790
5781
-354
805
4111
-4557
5879
-441
-607
-1218
3655
1775
1478
-1344
530
4933
-4981
-498
4435
3189
4117
-726
2099
1868
44
2900
-729
-1366
3789
-309
-5630
-1231
1322
-3207
183
-3155
-2964
1167
-2202
-5270
714
-4289
-4825
-1497
1033
-3209
-172
-501
-1246
-4299
-498
-16
-1314
-1230
-3795
-178
-4592
-1773
-427
885
-2579
-4631
2402
-5506
1456
-4840
-937
4910
-11
1006
121
3178
3693
1451
-5148
-332
-5166
-4044
4217
471
-1554
75
1200
2449
-3954
-2145
4896
-1134
-142
1470
658
-127
420
-3810
-2616
4280
1358
265
-2114
3106
-2306
3685
-4543
-2631
-4764
2691
-2996
-180
-4026
3361
2728
-3037
2298
-2915
-716
-367
-1538
-2408
1089
-156
203
-3450
1021
-1936
-1970
1737
-42
3972
-3056
-1029
186
-2402
411
4815
5197
2710
2191
1567
546
413
923
1657
5115
6068
2692
1028
2834
1839
-818
2133
1744
1686
3262
283
1968
1111
3582
1218
16
1982
-245
-4897
2265
1611
5476
171
6180
619
2686
1198
-5743
-5413
408
-2230
2310
-1401
-5850
-5860
-1013
4433
-3003
-2866
4322
-5321
-34
-3735
102
3600
1428
367
-5278
4754
-3591
-2462
-78
1010
953
5245
-5666
-471
496
4331
-4514
1347
820
3339
-1427
-5734
3822
-3340
-5864
-4858
341
-4634
-1414
347
-2181
394
4346
5791
-4987
1620
3145
3626
2793
-816
-588
3208
-2069
375
522
2050
1000
-2293
-2040
-1052
-2591
685
-2009
47
-971
-301
-4291
-3324
2910
-166
-3497
-1573
-1000
1906
-3386
-222
-3459
608
-3939
770
-5018
1842
-6615
-7489
-6698
-3574
-5960
-7097
-1457
-6924
391
2093
890
3714
-6400
1132
-314
524
1289
-4658
4432
218
-7490
428
5224
2776
-5545
-2803
-2614
3737
2755
-4162
3353
5017
4811
-3070
3912
-4700
947
2436
3145
-2273
1319
-751
5575
-7551
1317
1647
-4934
1673
1426
-784
1765
748
823
5042
580
-257
-4418
-4696
2760
-4578
-4398
-4652
1913
-4793
-2714
-3817
-4502
3951
-3490
-736
-4404
2969
-1791
-2074
3496
-129
1408
4640
-2015
913
2918
-1403
15
-2591
-1991
4745
-694
-2499
-909
-2022
1206
-3587
3140
9
703
837
5922
2924
5295
1671
1605
1228
6041
4039
-785
-4139
-1074
-880
1381
-4955
-51
-661
-5174
1312
304
-2675
5094
-4577
-5243
-1675
5895
3355
4035
-2687
-5394
3605
-775
-1113
-4850
4470
-2168
560
-3485
-933
-947
2170
392
-5646
505
2838
-1504
-1548
2717
-3933
-1650
-2035
-1694
-5973
-5116
-3695
-2057
337
4014
453
-144
1735
1774
1943
736
-1673
-2780
-915
-23
-643
347
457
286
1140
-993
-4822
4619
-4434
4513
3010
2936
-1806
234
-1433
686
-333
-1318
-1498
-1331
234
1741
-3354
-4773
-2821
1983
-2901
626
-157
-66
927
833
1244
2769
2103
6055
6065
-2897
-3707
296
-93
4710
-4899
-384
262
-5721
843
-3756
648
2910
-3479
-2781
599
1437
3257
5232
-4191
-905
2676
-3411
30
-3745
1252
-3343
1673
-3244
-1900
-3688
1462
-3957
-243
-5354
2178
-2153
460
3838
-1918
-704
-1054
-2130
-2326
-4429
-2607
-4669
-4939
1639
4328
-1658
4023
1786
5052
-2616
1250
406
2809
3557
-1680
1338
1094
154
920
-457
6712
-1572
3591
-171
-24
-662
2560
-3263
6640
4806
6235
3130
378
4725
5804
454
-3137
3849
5834
1412
2461
3457
2631
-1488
-4063
-3689
-3393
589
-269
-1102
-5267
-273
1795
4696
5868
-2348
4752
1729
4908
5737
265
3305
4433
-1047
1142
2616
1891
871
210
-3099
5635
6036
-5786
2520
161
6181
-2531
4347
-2674
3456
4292
2230
-3082
4101
5352
10
-4503
603
694
-3215
5196
6077
311
4764
3375
2184
-120
3230
360
-1779
-1451
2126
-1494
-416
-4389
-1682
2598
1524
1734
-85
465
979
540
497
4870
2782
-658
3913
5151
1589
1789
3223
809
2592
-610
159
367
-334
708
5140
-785
1156
-1941
141
-745
1602
4569
3587
1976
1775
1224
4609
6608
1252
3053
5826
6718
-640
2892
-234
1121
4170
-3542
509
-767
-1975
3622
-1503
-1982
2875
38
-3726
1065
4229
2836
2039
-704
-1996
3408
-1286
633
-495
6029
-406
5441
-2926
-3771
-224
710
1230
875
249
3411
137
-628
1690
2979
-3171
-2291
-3725
502
-2564
-2527
-597
699
3174
3229
-1118
1141
4164
4646
3262
374
-2184
1645
1748
1563
-259
-1734
2181
2828
5487
2877
3280
191
2703
3848
3031
1700
297
-951
3143
363
-476
455
2423
-918
1229
309
-2075
1404
-139
2187
3325
-2885
2387
-270
2944
4691
1968
4770
5626
5151
-5496
-4396
-4120
-865
5074
-3302
-4967
-985
-5000
2802
-3836
-1825
4515
-2566
-108
-1327
3257
4084
620
-888
-1194
1164
-386
-2917
-5296
3619
-2359
1880
-2448
-4139
-2380
3794
549
-2633
-5584
3809
2951
-3625
3297
-1172
-4283
-5403
-3938
28
-5110
691
-972
-2599
3072
4004
-4689
5849
3524
810
-1348
5364
-136
2258
401
-110
4216
1956
2334
3954
5193
3297
2493
5588
-152
2710
3137
-154
2434
4163
436
-178
2901
1925
-292
4060
365
535
1088
2792
3658
3231
3692
57
5669
6750
4449
2907
659
5644
3127
2759
-1391
254
237
3335
3320
2030
140
2476
2055
1361
2685
1665
3762
-596
3175
1183
2011
2400
1204
182
-2475
454
180
1354
3751
772
-48
862
1712
3083
885
3596
-2570
1405
2088
6744
2476
-1955
6666
3521
3997
1629
-469
215
1746
2465
3635
-1706
5127
6533
2468
6694
1985
1911
2816
5665
113
2510
6113
-1927
4153
5353
1184
5653
1803
206
3207
5267
61
4187
-254
2959
-1889
415
4120
-61
5752
-2015
1697
3073
1621
2730
6116
2738
1143
3463
328
2607
-2943
-2873
-3929
-1451
-1661
763
-2162
-2941
122
2605
2945
4671
-2743
1784
2838
3801
5431
-4703
5972
3085
-801
5160
2318
2197
-3574
-1641
661
4252
1864
700
2528
254
5275
173
4971
-2894
2158
636
1224
740
3713
385
2672
-4336
-36
5294
-4787
5580
6209
1163
2158
5112
3724
3711
954
4088
-3399
-747
4449
-5259
-3894
-5403
-684
1437
2111
-3529
-1545
-4111
-546
-1356
2095
1303
-3383
908
-4027
-1379
-3792
-4431
-3402
-1384
9
504
2568
18
-3257
177
2765
-679
-4214
2354
-645
2028
-832
-1231
657
2497
-6578
-7047
-1258
-122
-2208
-1826
-5512
-5526
2844
-777
-1165
726
-6931
4571
1252
-2048
-1540
-5605
4119
4474
-3926
2108
3837
3022
-3979
-3188
-4501
4504
2776
-4778
-464
421
2669
-4967
3432
-7232
2593
102
4966
-5268
4881
2349
2867
-3105
2365
3024
-3834
2440
597
2418
-235
-689
2637
4949
-1259
3863
-3195
-2898
4694
-4387
-5916
-3488
-2434
5398
3533
2991
1916
27
3206
425
1976
2416
2044
2066
-650
1879
2202
1643
1032
1170
-2754
2825
4475
5595
3349
1067
4903
1935
1889
-823
3154
4395
-2510
5217
-1286
2383
597
558
-1455
-3630
218
-3054
420
-2129
4987
3024
3046
2433
-3219
2510
-78
2868
2039
-4434
2578
1958
-4231
4813
4004
1656
87
-5558
-4857
3531
3066
-4366
184
5208
2039
176
3581
1265
5050
6245
1651
-1649
2813
342
4673
-108
-153
2430
-2438
-736
3115
-297
6029
6203
1785
6222
98
2396
-5478
238
598
-761
-5348
-2990
672
-2670
-1971
-1328
-1477
-4021
-943
306
-1678
-1982
-3743
-1892
-1109
-1498
-1954
-2457
1490
-914
-1278
394
-3786
1635
-1230
-3989
2088
-3771
-1964
-3390
-3244
-1704
-4027
921
-4729
-1971
-2911
-2503
-3360
-1799
-3668
-4019
414
-1436
4987
2428
3790
3741
-1502
837
1413
-1825
1977
-4527
753
4707
-625
3929
1934
-198
-5358
-3481
-5581
1466
-413
-151
4880
1318
3551
-5401
3790
-1678
-693
-1028
1920
-444
-173
865
2348
-105
-2386
618
-1350
-771
-36
-1470
5071
1356
-1372
-749
-1070
381
736
-5148
-599
-1796
-2450
-4269
-3225
2958
1938
4412
470
-1879
-3848
-210
-1767
-3477
-4742
3418
-4256
-1102
-3384
-4355
-807
1061
-1302
202
-819
3103
-3408
-3297
-2101
-889
2630
-468
-68
312
-4853
2663
-446
-3375
-4169
-5286
-3410
-4193
-1359
-1304
-5927
-3014
4516
1219
4324
-66
-6106
1775
4272
948
-402
-2822
5472
3109
-5549
876
-285
3178
-1888
338
-2292
1834
-472
-6221
2069
536
4619
-122
1752
-2194
965
2188
-519
-2858
-373
1323
2962
-6388
-1612
3177
-6319
-1577
3308
-873
3368
1462
5213
1174
1961
1753
-713
-3260
5064
-6413
-2225
-1097
1507
-1120
-2598
-1230
2369
1036
-1098
-748
-3918
2319
1885
-3788
-158
-125
4215
5477
-2980
4666
1881
-3581
-972
-1168
-277
1807
-2523
1269
-79
-2011
-1442
-1972
4722
553
211
-5578
4387
5019
458
3838
1105
5834
406
3094
-1941
22
-4497
-1988
1544
-668
-1872
-5557
-4764
-62
-3411
-1005
1682
-4381
-4817
-4745
3103
2813
2900
-1745
-3346
3714
-1718
-5033
-1586
1243
-3229
376
-2632
-2152
-2803
3471
-5286
-5243
429
4103
575
-194
2958
447
-1375
-3226
-3860
378
-3975
-3732
-3901
-2977
1979
3644
-1445
1101
-137
1345
1366
-2174
293
121
1167
3682
-357
-1028
982
1584
1237
-3169
2688
-4202
255
-1006
2658
1654
-853
-4654
-2513
-995
-687
-1700
-3870
-4133
-2061
2514
-2198
-3042
3488
-3736
265
-2583
5821
3427
4160
6020
5974
6019
1505
5053
-3472
-5718
-2111
-2009
6261
-3618
942
-4270
-3324
6511
-351
-4567
4439
-3410
-4761
-4616
1912
3061
958
-5242
-699
2602
-568
-3209
-626
1080
-5201
3377
-5354
-4117
-4843
3181
-4069
-4083
-675
3119
21
-180
6846
-3795
-1170
-2985
-4735
-1615
-8
-2264
-829
-4979
4718
2903
-521
1194
6273
3733
1025
4641
3187
2506
3844
1357
3494
1559
2986
4220
1957
5250
-1400
-1
1695
4312
1857
5023
-3403
4447
3222
4381
2947
-456
-91
612
2785
794
5454
5528
-2882
1897
-1366
6164
468
-3974
-5053
-5665
-754
-3761
-234
-2294
4596
3683
5613
3044
113
5847
3841
-204
1389
-4153
2018
3923
-5661
5038
132
4059
-114
-1382
-168
1479
4894
-1796
2762
1095
4795
-3812
-802
-5275
4567
3605
4448
-3311
-295
5572
5722
-2328
-1364
5005
-643
2312
3754
3348
3138
1333
1563
-341
1414
3812
-2741
312
874
-4931
-4767
-3949
2690
-350
556
4773
1998
558
4785
4467
521
2711
5402
3493
6557
2940
6037
2298
1665
6610
1038
1813
3853
-601
115
758
4869
1860
6447
1504
1853
4730
528
2557
5282
4190
-70
1687
1288
-26
6055
445
2360
3624
-3211
-1034
545
-3327
5405
-5155
1954
-2214
-1590
2094
-2074
-4092
172
-894
-913
-514
6268
4231
5404
-2398
-3207
1829
-3715
623
-4802
1761
-4570
-302
-1234
-2972
-2741
227
-14
-4175
913
4356
-1903
-3680
2725
-1724
-1309
-2808
-1127
-2669
200
-3234
1258
-4731
2701
4598
1076
3859
3484
4
577
-3109
255
1411
132
2603
2596
-2507
-1444
-1520
2255
1544
-37
1564
1519
1046
59
11
5697
757
-2516
-404
4183
4673
1546
-203
2217
-138
1445
64
2543
3412
5131
-4481
5173
5321
5600
1689
457
3040
4382
3955
583
-1694
-2753
-4836
3433
-2499
-3061
-1881
-5653
4737
-15
351
2623
-21
531
-4861
2561
4658
4096
-4498
-5001
-475
-5733
-607
-1038
4881
-4038
5127
202
-2644
-5603
855
99
-233
-3029
-950
-676
-5122
3391
-132
-1118
-3139
-740
-2004
-2701
-466
-4420
-1919
2125
2439
-275
4324
128
3044
-1856
1038
5979
2026
5413
928
2512
6046
2196
-81
6504
3332
4206
4672
0
3734
-1501
450
4304
4194
6351
4977
6048
-239
315
983
90
3390
6296
1574
4638
5862
455
3485
893
-3828
-3028
-542
-1345
1529
-359
-436
281
3622
1220
2156
2397
2462
2224
4463
2369
-671
4671
4081
-1846
2483
3018
4548
-21
-2129
-3796
3534
-401
-215
3914
260
-259
398
3117
-1870
5275
88
5439
-2333
4290
-260
708
-408
2763
-38
-1549
1640
4816
331
416
2673
4538
4843
338
3051
-1926
-1268
4120
-2477
-342
-1316
-328
5475
2020
1400
5334
2671
187
1927
-603
3278
6157
824
2330
6039
6327
756
1726
6174
5546
2670
3633
186
-265
5253
3041
5240
4199
-2834
2917
1417
1196
4244
169
-198
3232
2954
5674
5396
6201
4242
5909
856
-1781
-1369
1007
-210
5536
740
297
112
-2045
3566
-4758
462
3216
-3799
-1654
-3299
-179
2846
3882
-2100
-1305
2490
-4988
-293
233
4713
251
1787
-4203
-103
-3653
4619
-4266
-2062
1167
-407
2140
-1999
1065
-2538
-2670
-401
-1459
226
-463
-4649
-1664
-1339
5239
4913
813
3950
3578
3886
-2826
-2524
-934
1875
-866
4442
669
-3084
-134
-2375
-1111
259
4704
-3209
1695
3652
-2207
889
2913
-2444
2284
1084
-947
2139
-4296
-4058
-1090
1480
1357
922
5450
-2409
-927
-2901
3123
5960
4337
4410
2453
1124
4314
2399
-1107
80
-5191
-3390
4809
-3728
-526
-3420
-1420
2868
-2767
520
3153
-5564
-1745
-4577
2231
3402
921
-3242
421
4558
-4794
-2273
-5344
-247
-1515
2038
-4428
-4634
-5383
4625
30
-3526
-3866
3922
-2427
250
4324
514
-4327
-3522
19
172
-6000
-2943
-1718
-5017
1227
5770
32
3796
3552
1883
434
-1116
-290
1032
1690
-6008
-815
-469
3306
-392
-2651
-877
-4175
475
-1084
-2420
893
355
-5327
113
1666
2731
-2910
-1787
2192
91
-1843
-2008
3292
-235
-3042
276
-2204
511
-3969
-3723
-4807
-6001
-1498
-1443
-2486
-6349
294
5916
1236
3291
-5808
1525
4586
3562
-888
-3074
-577
2858
-1260
1214
4449
-589
-3335
-1564
-2964
1218
3092
-6306
974
3965
1880
-2891
3816
-3437
-561
795
-336
-3610
3148
1153
-461
-5654
2556
-480
-342
1889
2795
2129
2600
-387
2810
4272
2724
3604
-5981
-4809
1093
-5885
-3761
-3032
2646
2964
4165
2421
5504
-1835
2659
2631
1019
1647
515
3077
289
522
-3670
-2028
-533
-914
314
1104
872
972
1549
-180
2210
1324
-1825
-3281
5786
4848
-4459
5044
-4188
2907
-716
537
-51
-4477
-524
-1616
-3968
382
5280
5144
5502
3867
-455
2056
3476
1631
1193
-3804
284
1397
-1108
56
2995
1770
-2960
-643
-1493
2947
4901
-5650
2651
3822
3581
-1004
2368
-810
3270
2800
1672
-2852
3252
2895
2649
480
1162
1749
-4103
768
5921
2619
638
-212
275
3
94
4246
-3799
-84
751
-2228
-3560
-1461
1214
3256
2374
2482
3355
2461
2440
4331
6215
6218
4578
1147
-1139
5407
2756
2881
-3550
5382
1556
6332
821
6233
77
2581
6165
1831
4609
2353
1114
4315
-2764
2707
-72
4668
-1422
-48
-285
1491
-4362
-2668
892
-2140
3225
3833
4135
2405
-298
744
2295
5122
3501
212
1863
-619
-4567
3847
4358
5572
-2123
-1581
-5319
4843
-378
737
5329
5067
5704
-186
5106
-3623
-570
4291
4118
-5254
3737
1933
-221
-2031
3356
3925
-293
4858
2184
2542
5446
2979
5216
-662
5156
4827
58
-1377
4987
-5394
431
262
-3139
2922
1439
3506
-2014
-4723
-748
-2434
3756
-3961
-4948
2439
-6156
2094
-297
-1631
-197
-837
-1337
-1066
1356
3539
-2328
-2726
3266
-648
-47
1562
-414
2729
-4281
-157
-1774
-475
-5940
-4200
-4245
-2018
-5059
-5462
-2975
-3578
2152
2183
1253
1979
-1735
1993
4836
2572
3516
-1696
1844
2558
-1033
-944
-572
1305
-1717
-3641
-2262
-1264
1
-4564
1749
387
1963
-1718
-357
-3328
5431
2137
608
-4935
2488
3941
4608
-2107
1035
3224
-3292
2380
4784
-417
2539
-1384
4424
1859
2890
-23
-3475
-5096
-392
-1417
-624
-2699
2767
-1353
1037
1883
-2882
-4683
-853
72
-2607
-1764
-2217
-1230
-1639
338
-4149
-386
-3519
-3742
-1142
1328
-315
882
-4
762
1993
1059
754
2239
-90
-1567
1080
-182
-3618
612
-8608
-9416
-9107
-8740
-7701
-7501
-8429
-9616
4068
3235
-1317
1211
-3615
4283
2897
239
2377
-4691
-811
5111
-5855
3990
555
2998
-9086
-6048
-8390
-1216
2665
-2398
4745
1574
4570
-5927
4429
-10032
3103
2205
4554
-8811
-64
1874
-938
-7730
-2122
821
-9159
346
-927
104
4787
1829
4089
1191
2976
662
-8336
-6864
558
-9544
-4726
-3575
-1238
-771
-2313
-9
-1191
3322
5688
-616
996
1274
5795
2713
5896
427
4329
1541
-1752
1663
6180
3319
3702
-2468
3303
4448
-1224
-1687
2018
3145
1763
4776
4872
-902
1693
-2154
2045
3558
3959
5313
904
2756
2660
779
-3443
45
389
-4184
5291
1191
236
-1541
-3682
3121
1139
525
5837
-5083
-3271
-3758
5771
-377
42
-1226
-841
5546
-816
-3509
-2243
2080
-3464
1500
-5601
-1584
-1259
-83
-5433
-2444
-3078
3943
-38
-3046
2076
-2866
-243
-2168
-3904
1200
-4642
-4899
-2301
-4695
2078
3126
-2583
4177
2281
515
2464
2661
3631
4070
4543
2027
1971
6542
983
5602
3685
1995
2018
4001
3104
1930
-2954
3492
2677
3267
-47
2333
2866
6059
4858
4113
2174
-114
-225
2584
2831
2077
1229
156
5124
2162
11
3588
2206
1906
-129
1816
-3534
-3280
-3901
-4324
2304
227
-1313
2507
361
2454
-3502
-4616
2640
-4189
195
-363
2674
2245
2894
1096
-2034
3533
-2404
-4281
-2855
6278
-2480
3983
-2444
-3923
-3042
1659
1305
2149
-319
4167
-66
1396
1046
2454
121
-322
-1692
-897
-2286
-2192
-4151
-4742
3983
2741
-1350
6238
5780
1046
1801
5312
674
4971
4192
1783
2871
1954
3720
5852
3317
2321
2421
2430
6948
4547
-441
4967
3229
5273
1083
6220
4239
1801
-330
5234
3609
-490
-253
5164
1223
4542
1823
3711
-220
4608
2626
6247
-172
3566
348
5824
2062
78
-2839
-3855
5693
-3192
315
939
-2221
2455
819
142
4505
-458
1804
-2189
1734
5496
4047
2608
2393
3243
-1326
-970
-91
3399
2338
3697
-2899
-3363
1383
3130
-356
-1566
1914
4178
3624
-2746
565
718
-2957
-3010
1265
-426
-3056
1594
1733
-3016
3611
965
-160
335
-26
5838
-2907
