-495
5625
-714
4016
2021
-4155
6527
-35
1089
-4209
-1154
838
2193
2272
3169
-1948
-205
-3514
-1187
525
-2516
-513
-2351
5993
-2614
-904
-3694
2080
2876
740
-367
1453
-3291
-3783
1761
-3049
-2400
127
1467
-1085
4965
-441
-4820
-883
-490
-980
-789
-2668
-1620
2077
-2715
108
-1109
-1623
403
298
-767
1042
1135
-4249
6418
1293
-947
-2206
-2476
1149
1538
76
2749
-2010
-2043
-458
2449
3318
-2380
6226
-3722
3362
5755
171
191
582
-310
-2261
-3017
3459
1903
-3116
4919
-2470
1844
1573
-4328
79
3542
-1108
1292
2356
1764
-4025
4272
-237
-1078
-948
124
-922
-674
-1616
5940
-1278
2463
3724
-2883
-5380
-889
-4523
-3505
-729
-3473
1104
5802
1860
-2812
4114
5200
-3452
-3428
-3480
-5213
-5084
3460
-3365
-4046
5292
-2673
3809
-4688
2060
2393
-4592
-1464
-4136
-5176
2295
-5240
3093
3730
-793
-6165
-3593
3430
-2507
1507
3965
3430
482
1175
-4294
-226
-3492
3216
2285
-948
3630
3584
5247
-395
2721
-3471
4587
-579
3593
-3528
3565
5123
2583
4638
-5516
685
3708
-4595
-5128
4545
1973
-5305
-5002
-187
879
-6058
-4244
1711
-6795
3082
3710
-1750
-3310
-72
502
3707
3771
-1645
-3706
2300
-5463
-380
-4038
-4356
3834
-10378
3636
-4187
1546
3943
-3007
-3209
-2026
-2827
-4848
710
-4639
-212
-6174
-8954
-6333
-4066
-4764
135
-578
-5501
4786
4005
-4198
4116
2625
1684
-5126
-6273
-5548
1486
-4906
5846
4146
-4481
2678
3240
-2171
3423
3845
-5415
-4061
-2937
-5314
-3538
4063
2247
3146
638
-2346
-747
-1681
1298
-6053
-2908
-1513
2939
-3578
-3212
1989
-1687
3213
-3895
1524
269
-2560
-1676
-1191
-350
2302
2153
-1888
-4314
-2780
-2180
-1167
1362
3138
57
3658
-3735
-2833
-1543
1366
738
-2716
-2785
1450
-3675
-1874
-2092
-3678
2139
-3409
-5139
-617
-2791
2718
-2758
-1030
501
3280
-1188
-514
7
1647
-1896
137
-5879
3335
-3452
2620
-5604
-3969
-2616
2797
-2149
-1048
-3687
-4124
3665
-4253
-1656
-5487
1161
-4409
-4721
789
1152
2308
2181
-3673
2239
-4134
-1309
3774
-1997
1117
-1439
3055
-3757
308
-5959
841
2987
3192
-1881
-3607
-6410
-1957
-3952
523
1413
-1042
1552
3556
-6155
2684
1598
-3937
-5093
-7971
1010
-638
-3446
2761
925
-1462
-4536
2563
1839
-1256
-3145
-1933
-16
1841
