-3527
-3442
-675
-3799
1346
-281
-1372
-224
-2561
4506
3699
1643
3932
4360
4959
4392
4450
2174
2703
4266
638
1222
1172
559
2177
2632
796
4718
1065
953
1317
2736
3193
3661
4485
3848
2356
2505
4038
2686
2961
1206
2218
1203
2192
3506
2513
2819
4966
4541
4589
4714
337
4383
4322
38
1654
2465
76
2077
1915
3757
1907
1656
-442
2675
2806
220
1794
854
3272
3804
3506
2191
-173
1348
2333
1354
2279
3479
5127
3857
2068
5266
611
144
3002
1214
0
2101
-4388
-1660
-3258
-4026
-3617
-3586
-3447
-812
-1904
-133
2314
3100
3008
84
697
1420
3528
1809
679
4327
1552
-998
3778
2961
1354
3095
-618
2124
2118
4216
-134
4006
3674
-699
9
186
2703
3637
3129
617
2752
1389
4130
4956
4712
281
4612
-195
3984
621
1891
4458
-285
684
813
-986
1653
-3401
389
-3529
-392
-3509
-1789
4423
2244
2694
4083
2892
1510
4995
5023
385
1235
1779
3105
1412
3442
409
2842
1044
4483
3594
1891
516
5000
944
1658
1407
5592
2353
5238
716
1983
1805
4952
2977
1643
5204
353
3793
3578
636
2332
2325
4591
1626
804
3154
3451
3325
338
3994
3366
1209
2790
4059
3438
2804
2084
-830
1779
747
1585
3286
1503
1831
5003
3496
1312
3946
3371
5081
5499
2526
3585
3354
1209
640
185
517
3289
3604
1484
3951
-1920
-994
190
-2074
-3719
-3456
-1221
-103
-4933
886
1726
1219
1350
2705
2488
2953
4076
938
1949
499
622
2999
3440
3411
1852
4062
632
1713
-616
890
-841
4101
1585
3117
-683
1644
1609
-371
2660
1279
3629
3033
4039
2079
2762
2413
356
2608
2788
1573
1168
2148
2338
838
-2521
2750
-1148
-2483
-2426
864
-2016
-2067
1051
4492
2628
1685
4973
1780
3442
5018
1158
2475
1207
389
2240
4389
966
5243
2594
5231
3593
5216
5686
862
3345
4900
1340
811
1586
1797
3570
3061
345
745
4740
304
615
1213
2759
2373
4929
3808
644
2667
3265
838
4345
3413
4763
321
5344
3361
3452
2537
87
1717
5196
1384
1985
4098
3513
1349
5105
2380
3266
1618
4956
5141
4084
3437
1953
4852
1993
3179
5503
1139
2656
3077
4571
4588
3036
5599
2449
3573
-2050
-4565
-4087
-768
-4304
-2767
-237
-2964
-125
3985
1707
129
1417
3326
2138
3735
4135
4131
4956
689
5034
1932
3822
1441
4381
1501
4013
3333
3815
-386
4021
1550
4316
190
4189
1896
5177
2470
2785
2617
26
4389
4755
2849
2575
1955
3440
1796
821
4093
4624
3185
2047
3231
492
-34
-71
-574
-2157
1210
-516
-759
-767
2552
5263
1198
5470
5107
1027
3923
4075
2159
2970
4176
757
3669
2214
4313
4329
1417
1427
718
659
4590
5564
3851
5299
2555
1614
539
630
1828
556
678
5548
1981
4024
5558
4247
-373
155
-62
480
2082
2082
205
-337
1340
3793
2638
5016
2702
3704
3892
993
570
4217
-440
3305
4365
-32
-366
3335
-178
2577
3102
3709
1923
1794
5294
1949
3282
3633
4881
4685
2547
2015
3262
2864
3281
1118
4741
2927
967
-1383
-3004
-1993
-3510
-3718
-1535
-2179
-2221
-3993
3959
4894
4078
4620
3496
3487
1504
4516
4374
3551
2225
1764
3153
1369
656
142
49
4422
3210
4219
2380
176
3060
4516
365
2673
566
2938
687
2422
537
3871
3005
1746
111
1970
1504
470
3170
515
3138
4939
4697
4188
2677
3510
190
3662
495
2889
4194
482
1326
1581
626
-899
1899
2874
3176
-302
1737
-844
1299
3252
-1251
-1375
-833
64
3496
3219
2529
-1404
848
1245
1324
606
1205
1974
1327
407
859
1861
-104
2479
2913
-1717
847
1700
1678
303
2142
2342
1382
-78
-516
1508
-823
989
1061
981
-2625
79
139
974
2755
-2348
-1953
142
2979
1040
-810
2649
54
937
255
-684
1633
-1335
1964
1035
-765
-911
1608
-2574
-829
-901
106
2055
2227
-1946
1107
2902
2226
-1193
578
3075
5372
1996
5205
4258
2398
4857
3967
1001
146
881
-3
2875
3117
3187
-258
-572
906
1694
2982
3054
3351
1400
3356
1489
4859
830
3253
1281
2366
4283
-42
3197
843
3942
1470
2683
-916
2876
-2559
1132
-1243
1001
2514
245
3465
1599
1329
3020
-289
590
-349
2852
4632
3958
4602
5263
5680
1527
5290
4124
4451
3716
3770
4131
2717
3208
4765
3928
3842
474
5031
2095
3973
3870
465
3762
1217
1479
1800
2290
770
2177
3178
1825
5718
5631
5241
5101
2267
4865
1309
694
1474
4636
469
2578
855
890
4301
1317
2617
671
2858
4115
132
1536
5383
4300
3195
711
4099
2341
4470
2863
4576
1148
958
568
4909
3106
178
2876
3603
3657
2319
794
4298
1072
1395
5499
2953
1614
3492
2656
-31
2620
4061
3830
1553
2372
3756
680
3519
843
2174
3939
4101
2455
5095
1300
5015
990
4003
2046
3451
2915
4428
1623
219
4383
3823
648
3938
5359
5711
3122
1068
3163
5731
4320
3579
3576
1086
3247
4420
1201
1690
53
3089
499
5048
4782
3369
-82
1006
3072
2601
4391
685
1896
3446
4858
2357
2068
2260
3011
2003
-610
-353
-1853
1363
302
-1816
10
1249
-2099
2754
2005
1233
4707
1750
5309
462
4343
4993
4146
2670
4715
3421
394
2894
1850
2918
4058
3971
2540
3545
3760
1470
5637
957
5782
1837
1011
3000
1185
2069
5417
3902
5139
3834
5420
3412
533
2660
824
920
1524
3232
4413
2048
453
1251
5450
3363
996
992
4078
832
3083
2775
2390
4774
5076
3394
1902
5021
3706
606
2443
2636
5032
5357
915
5420
3909
4592
4661
569
3866
1811
856
611
3654
5172
992
3330
30
-1568
-1949
-3124
-2448
544
-3006
-2802
-681
196
1266
4643
1489
1702
3893
-13
2025
4672
2505
1433
68
4421
3005
822
1821
2355
4414
3373
3822
2575
692
3572
2497
4441
4341
3976
2673
4195
3145
2358
1930
3646
1473
4190
3732
5214
1632
1553
4851
3702
3433
468
4976
1749
-2408
-1198
-1594
-135
-1773
-2753
-1205
-1524
-3548
50
1092
2787
-366
3299
2655
4717
3442
185
3953
-605
3156
497
-581
68
645
84
2018
4094
3134
1468
3706
53
918
-484
4140
646
4947
4894
3978
3686
21
4135
3462
3967
1380
758
2071
574
1309
638
-827
1584
1558
4437
1907
107
4367
4069
1822
2470
2251
4590
-526
-177
-1098
-277
-800
2441
1655
1757
-375
1146
4911
4660
619
-99
-339
4542
4354
3423
3350
3131
4459
1625
1964
848
3211
-455
1731
499
-2847
-3223
-2408
-1578
-866
-4349
-1770
-4278
-2564
2729
-333
-15
102
2642
1399
-511
1641
3204
3338
2054
1397
362
764
-1573
-982
2525
-1908
248
-405
3390
-258
704
-463
-53
3202
-1082
2781
-988
3176
3818
2673
-1047
-726
1144
3582
3355
3179
268
931
-638
2900
2739
-454
2914
4842
282
1905
1674
3675
3379
5366
147
3611
3497
3631
4180
3518
182
-360
4480
2318
254
1474
2403
4124
-1204
-675
617
-659
4074
1560
3047
673
1124
2070
1500
1735
1392
3542
3613
-231
2557
1467
4302
1673
4075
1290
334
324
1427
34
3749
2260
2875
-803
2890
3238
512
1691
-312
586
2757
-812
-191
-1183
245
-91
2024
1638
2003
732
4317
2258
3806
109
1523
1348
2443
176
3137
768
3552
49
1833
-598
4172
2356
1917
4344
2743
1457
-450
1997
3055
843
2556
2764
2449
430
5348
229
3184
5027
861
2627
1522
1667
1067
1412
-355
1364
3515
3202
2436
1928
40
3931
1784
1457
753
1339
1895
3576
2822
3243
4046
1874
3082
282
-73
-578
2003
-261
3761
3102
1389
3823
1726
3644
3880
3921
164
2835
1879
2732
-539
4700
1996
4746
1730
978
4351
3772
3597
1020
5589
3553
4097
58
1063
3973
52
1429
3899
4030
-604
2228
1200
4467
74
268
2842
3439
3389
1494
1155
2403
4514
1279
2792
163
995
3978
4846
-80
3888
2123
149
-293
3740
1868
-596
1527
1896
3865
3304
4460
1015
2
4490
1337
300
1509
2649
264
-426
403
3403
-88
2907
702
4725
1904
4478
1120
1271
3750
2285
4505
4334
1323
229
-1414
2820
2729
3439
-304
2905
3048
-716
1324
1232
-1161
-480
451
2730
-89
-145
3487
3069
5454
236
5375
997
1469
2516
4613
2054
-391
2970
4474
1676
2840
900
2676
510
472
1470
3534
2851
2905
3937
1988
2502
3655
3434
563
5437
1508
1871
304
1020
642
2778
3657
611
3224
2046
178
2242
2368
3062
274
5125
4316
2449
3757
4684
1318
1512
4421
681
-3441
-2341
-1723
-2448
-468
1153
-1813
1280
109
3956
771
4952
3239
4379
2916
1411
82
919
4521
1408
-8
4839
959
3002
-509
1142
4455
1272
1515
2545
4676
4038
1316
1455
3006
4817
1372
669
4851
2899
1111
898
5129
1125
2634
3251
2229
2203
2093
4362
1023
1972
1556
724
1775
2531
42
3161
3021
764
1987
2635
638
1565
3632
2221
140
2850
214
1067
2966
640
2513
5064
2694
3544
997
663
4111
4329
4391
567
3094
3955
4102
3447
5174
2918
184
3980
-2997
-420
-4253
-4286
-632
-2992
-642
-1999
-3261
3789
1707
2116
1732
1216
2918
-618
2978
3638
-1342
2075
2825
-158
2586
2201
2366
764
2887
1374
1262
-411
4086
-928
550
-132
3788
2286
-326
11
4385
3533
1079
358
2981
4113
3956
2984
956
678
4372
4284
2585
1624
1960
1266
4900
5003
2275
-261
2320
556
749
798
4749
2911
2381
-461
197
-790
2531
1711
2136
2993
-777
-643
2715
184
2396
-681
2590
-1208
164
896
4433
3794
3519
1913
513
1472
4552
-206
268
1588
-1608
-1386
-494
3401
-1001
2481
1214
292
973
-116
-927
-393
764
21
3540
-8
-1710
-506
-1159
2871
762
-596
-1654
2789
904
2512
593
2743
44
1264
4951
2747
416
1463
-418
206
-1697
-1961
2855
885
797
1618
1773
-1207
2061
-494
764
1137
2397
-1231
3698
945
1419
3588
4314
-330
1005
-143
12
3774
5155
1229
2533
2446
1306
1416
3247
2048
2185
-539
2142
52
4529
10
2785
1928
4380
4279
1022
1884
880
860
1515
3383
2568
1116
4572
1535
358
850
1315
104
2124
1249
-1174
2013
-1485
2732
261
4366
938
-556
920
-1042
1427
1342
-3120
35
-618
1045
-3671
849
-1569
-600
-1233
5005
5639
4065
4234
5066
4329
4335
1503
1364
1435
2372
4125
2640
393
-442
2320
4339
3151
5177
4623
5068
4504
2307
4493
1660
5245
5006
2990
1174
4674
4537
3846
961
2365
572
552
957
3607
1822
4079
2310
3300
3320
2219
2500
338
1852
1382
4917
4216
355
1251
707
3965
4414
602
3801
2036
3871
316
1542
468
-522
5610
5376
3180
2222
1672
3243
2054
3837
3595
2880
1315
1317
559
3087
5502
2545
2449
2304
-5104
-3322
-4282
-3837
-4657
-1097
-2369
-4335
-2133
4284
4739
3167
1358
503
690
1207
2516
150
2133
2503
3550
739
1595
4366
4477
4418
3367
-9
3645
279
777
2923
3656
3312
2965
-1061
2353
1183
1692
4690
3992
2090
2214
961
3457
1672
652
4672
1939
222
4026
1107
60
3570
3867
4552
474
4452
4050
3203
5238
4511
2107
519
-677
3368
-378
3686
1821
678
-169
33
-386
113
2279
-1912
-1592
708
1518
1346
-1625
4143
337
-381
-146
4346
1091
3512
3866
2780
-226
-233
118
1766
718
-1263
-472
2700
1550
2301
1669
3517
2409
-278
-1642
3214
-263
2381
598
-202
-1947
-22
-622
2053
-296
-1845
91
4323
3053
2249
4357
86
4348
1643
845
1065
-1991
-2781
-946
-1984
-2778
1460
-2101
1857
1224
-675
-1578
1965
728
1997
1820
-1182
1359
-1884
1541
1707
795
4467
3021
3970
4949
4520
309
3140
1553
863
3554
928
3678
-185
-913
365
3626
2088
745
519
2677
3870
2044
54
2989
1003
1691
1702
1216
1484
4667
-129
330
2382
-464
339
-1980
2024
1940
-2232
1301
249
-1
196
1104
4636
4451
1942
764
3475
593
1103
4691
4850
3592
3984
3440
3416
3454
4687
2721
2806
1894
1146
2276
399
-1015
1208
2238
-1109
1467
322
2061
1874
-801
2149
2088
595
4576
4155
401
1228
2646
1458
-587
474
4159
1552
3564
1916
1912
2363
1989
-810
562
-814
3188
4460
2261
-106
663
1314
4226
556
1785
3355
1084
1169
546
211
-1367
-999
-1457
-1100
-898
1269
940
4413
372
3362
170
3857
1399
1071
2803
2311
-1485
178
1703
2976
-1604
-1319
575
-1072
3503
2883
3623
-948
-959
-1337
1142
-1178
5093
2863
2027
1809
3653
4661
2844
4057
1867
3693
2806
822
3747
4258
1635
-197
-662
-330
1302
1674
2636
727
2283
2227
4644
3890
2625
4031
1857
2491
3564
15
3830
1743
4262
2140
2493
1921
763
2649
-950
3025
-1030
4110
-1181
3134
2750
1279
2283
2394
4178
4879
1319
4791
1928
-1204
-1761
1284
-1642
-93
-1935
-1759
-2843
331
-1767
-45
-2500
102
-1209
-1025
-222
-487
-2605
-1476
-2465
-396
-2399
-1073
-1888
-700
1008
-1694
-186
-1087
-2247
2074
481
1168
1504
-2579
-2817
-730
-1927
-1503
-1059
-759
-2732
942
2006
1085
1531
1183
20
-3030
-749
-242
-537
-389
-2557
241
-1952
779
1263
196
1003
59
-2227
-504
-2795
1659
249
1079
776
1862
-1616
-1954
-1801
-953
-1788
58
-812
51
-2760
-2807
-1043
-1401
-1612
2237
1134
-2086
489
-451
-1222
519
247
-1330
1377
-1320
748
-1399
1224
1972
617
1683
289
28
1522
2203
412
-924
1434
-1590
2289
2300
-2919
627
-1784
-2685
2269
-942
-1675
-249
-2716
-2522
1894
1919
-2047
1409
2130
1308
-1247
1311
242
201
1640
-2097
-2646
-758
-867
-2621
-1970
-2976
1139
-2909
1704
-2512
-198
1620
1561
3844
1536
2722
4646
2575
5488
628
3704
3122
1120
1791
-3
3516
4195
1765
3809
1501
3862
533
3370
1863
-104
3924
1414
4480
-38
307
2108
4870
435
985
672
5007
3280
977
-59
4339
-11
-492
3574
3543
58
93
3541
1864
466
5035
629
2006
5315
4502
533
349
-33
3395
3261
-80
2566
883
4232
-378
3689
380
1992
2760
2633
723
3902
4638
4297
4339
513
1799
4348
1876
1920
3484
2003
45
3029
-478
-399
2807
3524
3225
2068
1125
3909
4161
2119
1185
2830
1720
3372
843
2632
2288
4386
999
632
4250
2957
3308
4795
3101
2364
925
906
4234
2275
790
3534
4075
3296
1058
795
1638
4814
5130
268
4069
4784
735
2937
3649
4575
637
4814
1628
1597
-52
4408
-346
811
1087
1651
1904
2697
1862
167
2485
3848
3065
4206
3140
4010
2820
1607
5202
3225
1039
3415
1448
1011
2889
-1183
2962
1908
-548
861
2955
-1241
2016
2124
1044
2276
1248
2331
3219
-342
240
-428
4188
-77
3051
-583
-137
3442
1295
3053
-1573
-1827
481
-1107
-1262
20
-242
-1354
-1079
1678
-299
57
708
2937
1425
-517
-1091
-1019
2335
-1714
-407
1002
-2252
-561
-1236
-1189
3157
2914
-152
1944
1034
840
-198
502
-314
-1188
290
-2439
-676
1527
77
2293
-2561
-2563
2163
-2186
2469
-1116
2963
544
-1816
-1860
2240
515
970
910
3871
2338
2130
1989
-1
1745
3038
2066
1629
3145
-1187
358
1290
1402
807
1328
2544
2632
3187
5148
766
2510
4039
350
3142
2649
1257
2703
1030
3508
850
426
1125
412
548
1997
508
-33
240
339
-1304
-1290
3957
-143
1466
2202
-713
2333
3837
1282
4100
1895
2675
3690
179
52
2446
1725
1185
2848
4898
3862
3008
2236
2501
1065
2706
3772
4138
3252
2237
3024
1534
1831
4218
4826
1678
4857
1946
5915
5561
1273
4041
816
3656
1539
1425
814
1230
876
838
1244
865
5501
2212
2303
3165
5424
2582
654
2953
5148
5248
1388
1706
496
4489
5352
4560
3143
1920
4843
3438
4153
3707
1060
4530
1325
3881
1592
4524
3052
3405
4072
2466
5027
4797
3713
5868
4667
875
6103
2775
1825
4571
3956
2274
2483
5082
2000
2151
-3977
-3867
-1356
-2574
-2868
-2310
-2078
898
605
4621
904
5408
701
3329
2894
1335
1052
551
865
5266
1187
3328
4920
764
4550
3810
3286
2567
5109
342
2986
2240
763
3513
2492
4155
2875
3863
67
4595
4924
3605
3917
1035
3853
4389
306
3003
3663
2598
5623
1130
2732
3505
60
-1392
-1180
705
-46
2666
1210
-641
1154
5290
3019
3232
1991
4008
4136
717
2800
4617
2444
1790
2863
4886
4852
855
5418
843
1902
2077
4203
5052
5165
760
2581
382
4079
2355
2786
5055
1735
-44
1
4564
5356
2157
5078
1904
1376
3994
1512
702
1094
3144
3344
5281
1769
5145
2577
2570
1210
4031
2221
4393
2025
2974
2685
4368
5124
2132
691
907
2230
2310
467
216
2140
4327
4574
3283
4104
1584
3857
4794
3457
3765
3518
2112
1960
3260
876
4306
-104
-3076
-2563
-3248
-1648
897
-3514
770
-2628
3258
1767
5320
4666
3043
4955
2263
1144
2454
2868
2290
1117
1918
267
1900
3681
4363
763
5379
1583
2796
873
3115
2566
944
1369
589
4353
3842
231
5214
3973
2008
3496
5213
439
3243
2856
581
4234
1882
3037
2732
4255
3241
-3017
-2170
-2709
-1268
594
-1050
-1330
-2827
-4255
2446
4811
2794
1627
3029
3103
5504
2713
3490
1792
5007
2194
2204
2149
4831
1360
1949
4643
697
4670
902
4019
263
4620
1028
5526
3174
4488
1090
2768
615
4048
2333
1317
3979
4357
4945
4255
313
-92
2958
2894
1599
1014
3801
4499
1933
4058
2401
84
1425
325
3579
4176
1900
4000
3803
-884
2260
-412
2167
2272
3232
5062
1584
1348
5709
3454
5483
3439
4942
2731
2196
3446
4275
661
5312
4113
443
1892
3539
-3055
-3820
-2254
-699
-1582
-4617
-3300
-1944
-3540
1433
2884
715
1198
1321
4605
3193
3215
632
-61
3087
1623
1499
3071
3727
-561
2010
-350
2773
-663
-134
2741
-839
2619
2471
1644
2362
2899
2319
3909
3918
-421
4242
-538
512
4641
3313
3680
3413
2723
3257
1293
1656
371
841
545
3141
3267
2379
2088
397
2521
2290
4122
1320
3841
1563
4008
2030
3359
965
2625
507
2255
5206
4919
4080
2626
5455
871
4755
5140
5878
3883
4888
4746
5750
5360
1529
774
5529
2079
4734
5152
2855
601
1789
4213
5656
3264
2752
4248
1001
1804
4238
2567
389
1878
2478
2605
4962
4012
560
773
663
4177
3539
1835
3356
5201
3835
746
4324
2031
5399
4621
4824
3419
4157
1040
2002
959
3637
5201
2217
5184
3272
3500
4835
1222
4111
890
1699
3994
2386
2577
4720
4255
3945
2945
5340
2614
1934
3217
1160
799
337
3684
3469
4307
3097
856
1933
1585
3969
5192
2084
1222
5311
1317
4965
5729
1447
1723
3785
1933
1941
1639
458
2359
4213
-167
5228
3022
405
1113
4835
2046
1045
1457
1555
1299
1051
4473
4235
3339
4785
2243
2804
2215
2741
3459
5399
5408
2361
1698
3542
5365
3092
1894
-1070
-456
948
529
-1139
3424
1562
-287
1815
169
-3
-1343
-413
1518
2226
1679
-462
3129
1002
953
3281
4374
4374
1637
1065
-963
2523
757
132
-1198
-1337
-230
2417
-1162
-440
-779
-1802
1348
2516
3263
-1322
1442
-1426
-549
-1512
-19
-2326
961
-1146
627
2323
1524
41
-255
422
2791
201
3811
4178
1944
3790
2721
-43
1784
-1094
-2049
-1842
10
-2508
-198
-471
-1706
1379
3277
3090
2303
1051
3172
-398
3508
3032
2246
466
1085
378
4979
4998
3575
1423
991
4095
3404
1622
3167
-513
709
-683
1313
2121
3724
3133
1784
1113
4760
1199
3563
2701
3899
3552
3103
4183
3211
3845
2886
3599
2036
1335
785
-1907
-1659
-1553
412
41
-2281
4221
1751
2659
-56
4794
4854
1026
3886
1646
-4043
-322
-2589
-3608
-2616
1071
888
-2240
-42
4452
3741
4786
3560
1742
1557
4578
1556
4464
-193
1454
4848
2009
1812
3215
1237
4359
2971
1446
476
2554
806
2873
4730
4245
3539
3748
1819
53
413
3495
2812
2775
3331
452
150
4040
3924
3977
4702
689
1794
199
2444
4479
577
3875
5179
1046
329
1650
18
-247
3198
53
1179
2685
849
1581
3046
2108
435
1692
3310
2357
4152
1683
12
3843
3815
5258
4729
2712
1931
2609
3789
1040
1321
282
2877
3270
-535
-5001
-4731
-2950
-4005
-3224
-3790
-4892
-2301
3041
-394
3389
2794
968
2996
509
4185
1985
3984
3848
3991
-54
3082
-1172
-227
-622
2441
2351
1474
1046
300
2360
1851
3854
565
1125
2065
-381
1848
4243
1722
3887
384
817
3718
1513
-52
1389
2351
814
2932
3455
2633
3612
-1368
-6
-2277
1234
-2669
-2165
-805
-3223
-2499
3203
1364
4610
5345
5042
4583
3366
2568
5455
2103
3092
825
4600
3617
3570
-264
742
2167
2560
1936
436
3458
4864
2658
658
867
728
4950
5412
4677
5373
1160
2151
2202
5520
3709
2869
958
2384
674
357
4852
4510
4180
1144
3504
560
2035
1731
1815
2762
4887
710
4177
2550
3763
3968
3487
2234
-735
1223
2628
-399
2723
3778
1015
4713
561
5072
2876
5230
5304
3841
1189
202
2783
1400
70
4785
4363
1995
-3554
-3939
-984
-2136
-596
-4575
-2248
-2305
-1626
172
3382
-152
4146
4541
2514
2367
4877
4705
2997
96
-138
2161
2102
4100
3423
-209
4659
-656
2130
-155
3745
336
3248
2965
3561
1772
2599
2776
3353
326
3306
671
1944
-522
1910
1446
493
3097
2929
-145
3844
3211
4576
1469
2371
3040
4033
3043
4677
3129
1537
5357
1295
2362
5724
1290
1695
1278
2130
5586
4979
2745
4339
1813
3013
1327
1656
1674
789
4397
1116
1492
1361
1449
1154
6051
4218
6176
857
1156
5700
3556
947
5435
2665
2281
3226
4845
2287
2766
4330
5279
3607
4416
3523
4242
1216
1790
2578
2445
2087
4047
1663
4476
5084
5305
5024
2130
271
3777
4870
986
2471
5210
4280
3777
1271
3896
3425
1720
2816
2512
2309
3842
1230
5510
4484
5191
3982
2512
4533
4404
3521
3896
3634
5133
1847
2249
58
4429
5268
1760
4224
1257
1438
5703
4831
2748
2814
4603
2198
3562
458
5114
3155
3219
4155
4939
5095
2533
2444
5104
618
2339
4484
4963
2641
132
5293
4318
1680
3198
4835
2650
595
364
4207
945
5006
3912
2516
3112
5654
2434
2969
3297
5176
5633
1270
-825
-2054
-375
-2100
-2047
-2502
1085
27
-2362
-1495
-278
273
1054
-177
-2885
-2095
-2514
-475
-2492
1163
1514
-2903
42
683
921
1454
-167
-2095
2238
1676
251
-2826
-316
2179
2276
-1346
-995
-1419
-113
-2511
-1718
206
73
2558
465
1215
1957
-347
970
-1256
2038
-3134
1995
1010
1565
1834
-2249
-2554
1872
-1367
-1151
-2407
-2895
-1842
-1009
-2429
-639
552
-2200
-2323
988
92
289
-2453
17
1758
-735
-1523
-1683
1769
1015
-167
2154
-2540
173
154
-951
584
-717
171
-651
1023
-575
-3184
6
1213
876
-2760
1686
-836
-960
-192
-411
1764
-895
-211
1098
1487
939
-2056
2011
-2417
1364
-27
1507
-2977
202
2122
-202
1895
440
1142
822
726
1531
-535
-1517
748
-424
-1925
131
2324
-1048
-2524
963
1441
-1235
-1393
-1489
-1448
-1009
-2636
-2075
-279
-1505
260
-825
54
-2717
-2076
1271
-2990
502
1230
5130
5390
796
2995
2198
678
3545
-1691
2375
562
922
1813
-1674
1957
-891
2342
4954
4916
3070
1561
789
1587
5400
4054
2751
3801
3604
4290
1887
363
5156
2469
3491
1243
786
1795
3393
-282
-364
-154
1622
-661
1493
2548
3437
1909
2186
1097
724
2063
2763
2273
615
2878
2441
2458
2848
1927
683
-1275
2024
3759
3632
4466
4604
2884
3116
1585
1090
-18
919
3407
2182
3195
909
4513
301
2170
2077
-3097
-2581
-725
43
-3811
-2624
-1411
347
-1190
-190
3060
4113
1369
3657
270
478
1913
1707
1504
3299
154
2119
-445
724
828
2633
-309
-2580
378
358
-1070
-1945
776
42
1399
2159
-1969
-414
1961
-532
2695
-2227
-1228
2816
474
2649
3299
-189
1789
1497
500
3569
53
2715
873
1345
3221
2872
1399
-254
-348
510
3124
405
1595
2080
4777
3675
4154
1778
1219
421
5367
3849
4186
3782
4931
1063
3171
5388
1972
3965
3274
5823
4930
534
806
3875
5284
3491
553
2556
865
5366
3012
2988
5536
906
694
2388
3707
2100
4046
2756
1957
5200
2334
5050
2514
2302
4895
1878
4432
486
3934
4620
4930
2271
4799
4405
2533
413
2707
1045
563
492
2899
1688
3940
1941
2246
1823
5725
4544
3018
2335
4200
1593
955
2892
3084
3901
5519
3437
-2097
-1572
-3338
-266
617
-1876
-1202
-3517
410
4809
665
5059
4753
2602
4902
3819
3290
621
1724
3421
405
3745
4362
277
2476
2137
5294
4044
3901
4424
4279
2908
1825
5355
1892
2537
1707
1221
3061
3344
465
1501
3787
2489
808
2214
4731
2488
1444
4147
1424
45
3263
5076
2292
3118
2753
4116
2789
5019
4199
3081
3946
-296
-515
2054
841
-1117
168
-636
-1393
4002
-1230
635
587
784
3393
1954
3352
1074
-75
2513
4182
-63
-45
98
-712
2632
3088
-690
3016
1104
-1573
3508
1009
1601
1475
-1630
-611
-679
-334
1148
-716
-1046
-1134
1024
-413
-902
-1860
-613
2844
2893
2502
-1055
457
-1356
-1522
115
-121
-153
1453
3325
209
-182
2043
342
121
-1303
-196
-940
345
-930
-1360
3375
1725
1818
140
-123
-1886
1389
-696
1754
3284
-1849
2936
2329
85
1124
1749
3082
2517
2703
1532
1071
-884
2042
3265
-706
78
1713
1215
3477
2980
726
4711
3262
4161
2452
3694
4375
1822
2984
1112
2343
-672
3789
2618
2127
687
-999
874
472
628
-958
362
-1248
2116
1890
3004
-448
763
4408
4297
305
82
-278
3442
3447
1590
-820
-596
-2969
1311
5
-884
1685
2252
2507
3374
5637
4851
2560
5779
4854
3110
2222
3198
2852
4143
1815
3685
4966
2382
1222
4672
4704
3202
3300
1866
4796
3717
2436
3373
4517
3305
2753
2942
4733
5481
2334
1676
2005
5468
3741
833
2216
1155
3903
470
3663
3647
1083
442
955
4496
3061
3179
379
4280
1916
1840
2455
2723
1909
3446
496
1513
176
4450
-22
1779
5424
4899
3915
2686
1199
4234
3477
1977
3007
4344
3260
3088
1076
2608
3509
1753
1302
-3554
-63
-3489
-4738
-5019
144
-1218
-5117
-1113
1064
1290
4981
4974
5334
2596
4358
5010
3449
-462
4072
4619
2657
4811
3749
3837
3521
3730
2580
4113
2793
3466
-260
2288
4476
1423
3389
65
3369
4032
4320
4392
477
346
2650
5241
3356
828
4790
3400
4912
4897
2513
5233
501
355
2694
4357
3573
2418
2154
305
942
304
2198
1917
3840
1723
-502
1678
1510
-125
1959
-486
2495
2585
-372
138
1260
1533
2775
2231
1986
407
-726
-338
4183
2285
4186
-211
3064
-844
3204
322
1512
2878
2450
4153
-457
1766
1041
-1172
2239
2165
-1794
1130
2209
3385
3438
1911
-1921
-2053
-612
-1165
-1472
-1284
-882
1392
-60
970
2037
3368
45
2592
28
4190
3504
1693
1512
1449
2258
1528
258
-772
-2097
1630
3437
677
3093
1507
1681
1068
447
3946
3538
2770
4465
85
3731
3755
1954
4747
1755
3908
1479
1417
-189
-530
1101
3157
272
647
4391
4287
1444
1796
3962
2827
1100
1822
5910
1343
1059
133
1879
1635
3757
1246
2496
3516
685
-303
-140
-1709
1224
-598
2172
103
1059
2132
-93
863
762
680
1597
-245
-148
201
3972
