-1644
-1999
3239
-1312
754
1286
1018
-259
-1267
1341
3789
-1035
2349
4735
-1262
391
509
-1216
-4329
1841
-4529
-988
-2030
951
-2068
932
-794
-23
-1421
-1151
1491
859
11
-1851
-2228
-1094
3781
1395
959
2459
4426
4039
1227
-77
2078
517
544
2486
2553
240
-2585
1534
1470
-348
-802
-1945
-648
-1790
-1949
-4903
-946
-2279
-4393
-1955
-1066
-795
-2191
3602
-82
-231
-1237
347
504
-1181
5001
3708
3733
-2
2459
1883
-1633
2367
2150
-1010
-3424
356
-3626
1263
719
1691
-4936
-2287
-1297
-1572
1100
-4402
252
-1053
-390
-2255
-716
4410
2840
4313
1716
-1493
4187
4215
3563
3315
1801
5631
-588
2904
5361
317
3758
754
5808
-173
6060
4525
5588
4838
3263
3579
5242
4189
1076
-1969
-2120
-122
-5738
-3700
-5909
-1500
-4031
-4352
-24
-5615
-5618
195
-1222
-676
-2059
-3364
-2248
-5125
-3628
-2185
-6372
-5406
-4531
-3902
-1046
874
6173
5196
30
5946
5401
769
2902
4785
2245
4364
5434
5294
2112
5523
2254
3242
3181
3414
3895
2962
4036
3694
-340
-273
710
-2147
-699
311
-3906
-865
-3346
-838
-1332
-5027
-2674
-2742
767
-1815
-802
58
-455
-1784
-3419
-63
-2488
881
4699
377
4908
159
2572
1495
4630
746
5869
2474
776
1525
906
2614
-205
1180
4179
2695
4538
3533
4410
436
6672
2128
5084
5970
-1709
-4840
-1783
-5634
-4338
-6144
-3127
-1363
-2296
-4165
-5224
-1338
-5004
-2908
-2176
-3503
-3265
-5186
-4101
-6231
-4113
-2702
-6326
-2370
403
-5739
-311
3032
4482
3212
6362
4184
4680
2138
2415
3004
4218
1597
718
2670
602
3897
5530
2264
-251
2434
2743
3324
138
666
5969
5386
3460
5601
2030
-3252
-6321
-5063
-1034
-3169
-3859
-1104
202
-5208
657
-3573
-873
575
-3793
-1253
-5138
307
-2919
2117
2161
4149
663
-573
315
3250
-240
5623
2000
3760
459
2665
981
1427
-144
3860
1139
3931
3796
3370
3942
199
3626
231
4783
3750
2757
-1714
-3161
-4004
-1953
-730
-257
-2415
-4872
-4374
-5738
-268
-5470
-153
-2244
-2566
-3560
-2556
-5507
-456
-2964
-4753
-4043
-2001
-3637
151
313
1593
3284
3712
611
5193
1578
5031
3341
5888
2052
4722
4174
1111
5770
2255
-121
311
4777
4427
-646
2110
3975
3478
307
1627
1576
4058
-104
-1293
-4916
-4786
-2227
-1610
-4016
-229
-1570
-4362
693
-545
-4972
-1247
-2623
-1548
-3454
-5046
-1843
4690
1994
-1900
-559
3627
2485
399
1690
1915
2936
1184
1954
5357
1946
1694
943
-470
4236
5264
5619
212
2758
74
1416
48
2905
6116
-34
1701
-3342
-3874
-5816
-4695
-4789
-724
-3536
-2294
-6333
-2690
-5417
-2602
-6145
-5652
-131
-1563
-3211
-4562
-4849
-2954
-4496
367
-5163
469
161
1481
2953
4803
3807
3214
3342
4967
4567
4015
3622
1211
4603
-28
4235
1042
1155
4879
2885
4887
677
1762
3496
3961
2404
1790
-2066
23
-1304
1364
-1503
-2668
-4308
-4544
-3477
-3291
-1762
-1852
-4633
-1508
-3086
-2311
-3906
-531
-546
-5722
615
4274
3749
2231
-1529
-1422
3411
2509
-742
606
-572
1863
4627
1285
2513
2629
3750
194
2561
5009
170
968
4410
1004
5936
2830
6010
5254
3325
1390
-1753
-5494
-6455
-5468
-3029
-5661
-3043
-2535
-2089
-1499
-4103
-140
-5394
-3054
-5681
-484
-4416
-2063
-5068
-1503
257
-1016
198
1315
-184
1945
6017
5612
4555
4832
1017
1459
1848
5437
-446
3028
5034
5896
-478
1885
2455
3498
5645
1684
1530
1511
2354
1673
1062
3283
-2721
1115
-2067
-4196
-5036
-2976
-5112
-3360
-5628
-4860
-3034
-4093
-5584
-4530
250
-4401
-4437
-2011
-2871
-3760
1627
-842
1944
508
243
1717
-464
2092
1116
1877
-79
-66
726
1573
1702
3087
5193
2283
-375
2296
1558
3299
2993
1058
5064
1716
639
1978
-35
3678
-1779
-857
-5526
376
-4897
-5136
-414
-5846
-4527
-3828
-4784
-532
-1301
-5901
-3533
-618
-4059
-4048
-2895
-2138
-2740
-5470
-3875
-755
772
1015
1178
2178
6207
5487
1167
-131
295
2956
4732
4368
6147
734
5533
1709
4125
2810
604
1056
5037
2566
426
-1372
-1393
325
1139
-4023
-4838
-3166
-5851
-2957
-4825
-2480
-5212
-1290
-3715
-2530
-5828
-2938
-5998
-2633
-5288
-4850
-5986
-1902
3800
1748
3589
-1133
4258
2707
1539
-345
4654
544
3632
4772
2784
1150
4477
1623
5015
5434
3878
5881
2276
3455
1637
418
1700
5719
6029
4688
-342
1260
2326
786
-363
-5557
-744
-890
-2138
-4807
-1399
-1453
-866
-6356
-899
-67
-3990
-837
-4311
-6260
-5289
73
-6063
-3083
-3620
532
-841
3172
2138
-19
4714
1939
5690
951
4740
3667
1041
243
5691
1110
560
2157
2157
4380
291
-6
3956
968
700
-985
88
-924
1071
2169
-2238
-2577
-5573
-2968
-2009
-4790
-116
-3974
-2819
-1458
-1562
-4462
-4802
453
-3936
-5587
-4594
-3822
973
-288
2165
1177
3742
3474
4556
2448
4080
5532
3242
24
301
2105
1518
4568
3572
2850
2730
5506
4260
6271
-5
6429
6240
1986
5940
1238
-483
1151
-5051
-452
-5590
-4421
-674
-1312
-5314
66
-4911
-6091
-3151
-3011
-5624
133
-4314
-1843
-1500
-5299
-831
-4173
-2063
-3960
364
807
-2358
3248
2000
3558
302
2839
1418
-5
5701
685
161
-384
5580
5063
4859
1140
5295
1197
-315
4738
635
185
1279
-1160
1796
493
182
-403
-2428
-6752
-3675
414
-4695
-3416
-217
-1712
779
-3737
-4746
-863
-1416
-2143
-327
-654
-3136
-5425
892
849
2112
5797
-223
3980
6027
1968
1043
4676
4074
3511
2020
3891
2763
412
454
-1926
341
-1339
-5423
-4844
-670
-3731
-3562
-2834
531
-2525
-2681
-4087
-859
-4072
-2749
2755
-996
3876
4284
726
3104
3431
3925
92
-98
3606
4240
4420
-83
2076
2645
-599
2911
-3436
-647
-3904
-4358
-3131
-672
430
-3440
-1167
-3465
-4898
-1024
128
-4441
853
1139
-1029
507
3928
3660
3133
3705
5570
3632
4186
3669
-163
3249
995
5040
2522
4744
-1143
-808
-5259
-4149
652
302
-3695
-3622
-902
-2885
-3268
-2588
523
1192
1572
1413
1613
1861
2560
-239
5789
3339
-269
5004
5832
3609
5303
-140
576
1974
1271
4271
4069
2181
-2746
-4422
-4904
592
-4958
-5843
-1627
-1943
-5762
-2022
-835
-458
-1501
-2014
-5564
-1498
2080
1806
2657
2467
-345
4947
3683
87
4296
3563
3760
3666
1904
4728
5380
-1328
1020
2453
-4820
-445
-1866
-1251
-2962
-4867
-876
220
-5857
108
-4394
-1338
-2107
172
-1436
-3637
390
5521
-249
377
3395
3862
133
1473
2728
-200
1823
2987
1092
3977
4523
366
2182
-3356
-4071
-4706
-2716
-3217
-303
-1378
-4066
-5700
-2301
-2605
-3321
-2998
-1394
-1489
-520
-116
-596
5195
-507
-993
4372
5469
5336
3236
3951
1538
4860
4118
1313
-1848
2639
-3257
1706
-3205
298
-2551
-236
-2613
-4154
-3748
-2894
-3490
-3168
349
-1896
-5276
-2574
-18
2815
-789
3852
533
596
1178
58
2909
4258
4503
5987
4169
44
1054
1056
1522
986
-800
1366
-3501
-3580
-2706
-4685
-3257
-4954
-843
-3611
-1265
-824
-4108
-4952
-4822
-2393
1246
1288
3870
348
2626
4945
2881
-163
5122
2133
1642
720
5176
1371
2270
3062
1081
-3456
-2871
-2629
-3792
-3936
-3580
-2577
-2827
-5099
866
-2148
-3097
1245
1017
-2785
-979
4244
-206
-1077
2292
4003
3662
1990
1501
153
3584
1157
5344
4563
5377
3470
3785
938
-3654
-4043
-1830
28
-3804
-845
-2628
-1336
-3601
-2320
-4827
-3224
-3766
-5403
-2270
190
2420
1934
-1163
4444
5126
1883
-563
3072
5794
5445
215
1995
4951
3577
-395
4919
2336
116
-1894
-1624
-1034
-5717
-4913
-726
-5053
-3042
-4590
-4971
-1914
-4844
-2202
906
-4632
-4543
-4497
-2183
4723
2388
1356
3225
5800
4865
2478
3267
2384
5237
432
1095
4605
2047
2027
-543
-1533
-4271
-4814
-4593
-2017
-1693
-4352
-485
-670
-1588
-4381
-4749
-3897
-1195
3571
2518
-2090
3893
-512
-2158
2893
-435
1607
4287
1941
2905
5071
2085
3415
-310
2733
3007
4874
1715
4653
-365
3970
4119
5642
3987
4452
1776
5535
977
2818
4539
3080
-580
-1053
-1777
-55
-5704
-3397
114
-2220
-3717
482
-359
-772
-815
-5886
-370
-1849
-3757
-3373
-1465
-2581
-3193
-3808
-1220
-624
1042
3265
3405
4783
2455
4364
1506
5851
2510
-367
1281
2440
839
5256
4857
5475
3189
3318
4655
792
3901
-492
710
-2822
-2604
-3000
-4142
293
-2745
-2531
-3362
-121
-2912
-3750
-3249
-4072
824
-4428
-3025
-2026
-5757
-5439
-4866
-1346
-2587
565
-336
1207
1487
4170
5308
5600
4058
2384
824
4017
-865
4958
3071
3353
2515
-1573
-1730
366
-2606
-2541
-4958
-3320
-5227
-5506
-5314
-790
-2744
-4799
-2480
-2652
335
853
-1719
1167
1958
356
333
3145
5390
2204
4120
5287
3896
-424
572
3403
856
1623
-2845
78
1349
-455
-986
-1335
-1176
-4842
-1021
-4530
-3431
-1139
-3237
-4207
-2420
1265
-1572
1688
2098
4712
4948
-127
1488
4860
2117
571
2680
1188
2442
5222
2999
700
-1919
4252
-92
-2270
-4188
-2976
-965
-811
-4428
-4933
-1049
-3756
-4690
-3808
707
-1002
-4243
1824
1642
2384
149
-519
1327
1974
5170
4963
2708
1856
2238
1103
5139
1049
-587
397
49
3968
2789
1659
-876
-3676
1377
-3337
-1515
-2297
-27
-3327
343
-2586
-425
-1108
-1030
547
2183
3446
-491
-533
4052
-353
-623
-537
4550
3610
5346
-811
-630
3125
2264
2097
-602
-648
1666
-2283
-1483
-3279
-2182
-2875
-1853
-4836
-2669
431
-497
-4274
-1521
-32
-640
-380
117
-752
2386
2344
1444
1925
3779
4103
4740
278
-774
1225
4870
936
3756
-221
-3593
846
346
-295
-2194
-91
-1093
-2185
-1586
-3361
-1902
-3710
328
-1072
-2027
-1362
2724
2245
445
2389
4185
2649
2512
4534
1471
4839
2802
-396
-1786
-303
1183
2531
-1551
3137
2577
-569
1552
-256
-3086
-1951
-1704
-4571
-894
642
-2808
-1146
-375
1115
-4107
-3781
-867
4364
758
1294
-339
2884
2223
-828
3050
3678
1138
3094
2892
-829
4288
2868
2104
-1345
1718
320
-3627
1105
-2248
-4221
-813
-1746
-3754
-2398
-3616
-189
-2074
-589
-836
-3426
1278
2162
4506
2466
-1399
2500
-1438
-941
-1520
1650
3485
978
440
-1453
677
3670
-2297
-1898
587
-3435
1172
-465
1623
-2701
1013
-2114
-722
-346
1687
-1232
-3454
-121
1450
-2593
1457
372
5258
3678
2337
2192
-974
3900
-1189
-969
-999
-1452
4312
46
3611
880
-418
-3750
-1319
-173
-2312
-2926
134
-2163
-1752
-2962
-2364
-3602
-2335
558
-283
-2887
183
3915
4558
336
855
4380
1750
3300
-49
-837
4511
2921
4884
94
212
-1645
180
1532
-2601
789
-3290
-1907
-3737
-621
-1946
547
-2390
-3876
-4052
-1017
-4996
796
-3935
-3161
2060
4449
2318
4746
2759
-9
4510
1072
5000
1940
-306
1484
-705
-752
3878
-1080
-1896
-4366
-418
-3974
1033
-4970
1357
-1307
1136
-158
-3063
-3011
1495
-3176
-2339
-1494
675
633
-1987
-90
2901
1604
-177
1394
2067
660
-1246
3227
1757
-778
4580
1822
1564
3280
-1354
804
3746
3036
1004
4006
5200
3479
6066
5112
1222
5667
4544
934
1101
-2061
-3363
-2113
-2811
-4294
-1012
-5541
-4559
-3140
-3817
-4212
-1885
-2151
-3108
-119
-2385
-1872
-533
-5669
-2177
-4783
-1141
-414
17
101
-1185
478
2724
-639
2538
2927
242
1355
4025
4318
5162
5118
2971
3907
4833
4838
-1241
1121
4227
1023
1428
-376
-878
2565
-445
972
-17
-772
-2338
-3679
264
-2506
-2746
-2100
908
-1795
-4748
-2069
-1458
-3761
-3519
-2328
-651
-3465
3600
-435
3741
192
2994
1431
-827
2624
591
424
-834
3938
869
393
-949
1157
1938
1756
-2694
-904
-2643
-3527
211
-4524
-4014
-2596
-4799
-4708
954
-1820
-555
-538
379
3287
-1452
3813
1281
120
3979
4989
5260
3135
2333
972
3377
3048
-1420
3353
767
-2218
-2741
-1489
-4881
-5473
-2017
-4543
-4907
-4826
-3109
373
-2221
-2180
1153
-3109
-2497
1184
2538
3107
4239
-482
1055
5239
2066
1876
4009
4659
1288
1431
1417
3465
-72
-1480
2342
976
980
-3651
-226
-77
-474
-2445
-4702
-3224
-2376
-2828
-2043
-4492
-1921
-2996
1336
-508
-596
2623
-288
2840
5388
2746
2124
-319
4980
39
2830
673
759
4800
3039
-2073
-1713
553
-1861
-4335
-3655
-1848
1036
-5341
-2434
-4502
-1044
521
-524
-3852
-5067
-2871
1755
443
1862
4078
4989
4190
1354
1590
5146
-584
-688
4279
-310
4682
4559
4073
-1278
-2003
229
-4961
-2843
-445
-2036
-3545
-1705
-1048
-776
-4400
-5151
-3674
1136
-3925
-3634
-1444
2524
3194
848
298
4412
4033
3570
4049
4604
4076
2581
4181
3846
-13
4169
-1092
-2331
-3067
-883
717
-4345
-5412
-2397
-2177
-457
-4704
-3044
-1827
211
268
-3694
2352
-1911
-946
2582
-919
-807
4186
4418
4143
76
3444
5668
2250
1103
1884
2474
1595
2288
5419
3714
5376
4175
6110
2048
510
4543
3484
3900
403
3964
3363
-252
-4462
-5268
-2280
-2895
-525
-4941
-2254
-3013
-5230
-4615
-5139
-631
-221
-4497
-5284
-1956
-3365
-3937
-5249
-5956
-3424
-5546
-1561
-4050
2140
-869
-50
64
5075
2945
5825
2115
2402
2396
1356
2124
148
3821
2003
4810
4743
86
1576
795
-427
-173
1100
4510
2125
3551
-2280
-1138
-2989
-3457
-374
-5720
-1700
-4945
-2188
-2845
-4281
-4914
685
467
-2765
377
-3445
-4703
-2214
-407
-2813
1805
3127
3026
4632
3515
325
4850
4877
5462
4626
5287
4897
-675
1737
1144
1368
-3908
-3729
-2147
-553
-997
-5781
-4711
-121
-4916
-4899
-3112
-2408
-5783
-638
-5494
568
3008
-312
4693
4048
4451
2888
5086
2987
1174
2075
2032
3673
5009
4308
-982
1864
1910
3720
-3113
-2427
-1316
-483
-2712
-4653
-1332
-3148
-5429
277
-5609
-4675
-3129
-5194
-992
-2245
-1227
2562
-475
-237
-278
3007
3061
5327
4108
5086
5624
3304
4347
5077
2157
-1349
965
-4424
-2621
-5875
-3829
-6039
-4082
-2599
-560
-5520
-5779
-4744
-91
-315
196
4232
706
505
4770
1404
4366
197
3331
491
5856
4438
3104
5526
4167
5143
2811
2421
698
386
831
-3477
-4696
-4282
-4472
-1612
-3802
-1869
-5715
-2616
-4501
-5898
-4272
-2265
-3929
721
530
-32
3426
3556
2459
5576
1610
1615
1416
5412
292
5661
3978
5095
4297
4780
3452
-1902
-2924
223
-4622
-2593
-4863
-3931
-3799
-4652
-3368
-539
-617
-4615
-622
529
-1130
2234
-518
2556
3104
1418
1762
2644
5267
3545
5067
139
1403
1136
1485
5485
-185
-179
-3699
762
-519
-372
-3219
-127
-3855
-185
-3258
-3868
150
-4840
-4151
-1960
-1031
348
874
-1197
2826
1912
5383
1778
788
394
5540
517
2069
51
1050
-1186
3470
3261
-1405
2368
-386
-1679
-904
-359
-4596
582
-1941
-1707
-719
-252
-5020
-1606
700
-3884
-4272
-2264
925
4241
3073
-555
-61
2359
3847
5122
4997
5129
2766
1732
1400
5094
3606
808
2706
2308
-1734
-3778
-210
203
-3898
-332
-4063
-277
295
-1554
520
-4353
-1895
179
-601
2729
1102
-29
4395
-23
29
3936
436
-699
3410
910
2555
-594
2897
-625
153
-617
-3175
-420
-1372
281
-4427
-787
-2783
-5323
-213
-3185
-5498
-2399
537
-3914
-4403
-2903
-2720
-2536
-60
-1290
3062
4149
454
1876
4697
758
2470
-614
1913
2547
5963
5645
1167
4797
5958
5703
5609
3504
4
4128
1127
6015
1151
3265
4584
3818
-2202
-2914
-58
-5225
-2752
-5710
-4856
-5883
-4004
-3592
-412
-5380
-278
-4744
-956
-3
-2076
-4746
-4773
372
-701
629
-2308
-373
761
2891
-179
572
2387
5779
954
-406
3350
3781
3170
1064
3064
3819
53
2824
475
5157
1295
-689
4279
3440
498
-227
907
2332
-297
-3063
2210
-1173
-4833
-1869
-4977
502
-858
-5115
-3931
-3030
-705
-351
-4932
-1509
-542
-3886
-1674
-3468
392
542
2592
4006
-49
2419
1637
2199
3152
-428
991
758
4822
2823
5204
4740
5918
4502
4923
2200
347
1786
5346
1484
-276
652
-571
648
1500
1696
1720
1200
-5328
-3011
93
-5326
-4798
-6144
-3971
-3530
-6056
-3427
-5356
-4268
-4512
-98
-4676
-4530
-5310
-2436
-4988
-1725
-4051
-1673
1379
2891
5212
5053
2804
2174
3948
6093
2517
1866
2088
6095
5167
3006
2160
1617
5945
2827
2953
4675
-884
4574
4557
3609
345
1958
-2798
-505
-3662
-6049
-4271
-5870
-810
-1748
-4698
-2906
-1240
-4882
-4988
-3871
-441
-2907
-4434
-4692
-1125
-1786
-4773
1997
1171
2566
2657
-453
-610
3714
-669
4947
1592
3700
-705
4039
4962
5005
3296
3205
2918
5706
4603
-282
966
1566
4663
-146
5395
1790
6412
1838
999
-1512
-640
-5779
-3383
-3414
-802
-3767
-3019
-2952
-3481
-5363
-2708
-2168
-5250
-2159
-2614
-2366
-1418
-609
-5696
-5671
-418
1021
-989
-286
-228
5128
2613
4710
419
5739
580
5948
4217
3787
-571
1191
3219
597
1771
4371
2619
3725
4154
3064
2757
-1810
236
1021
889
-2138
-4037
-289
-2502
-5082
-3873
-3924
-94
-3534
-4489
-3576
-3138
-5156
-1118
-4582
-883
-43
-2352
-4411
-4403
-2472
700
3029
5508
2822
5851
2805
2244
3002
980
769
3471
-837
3632
-10
2841
809
-2535
1371
-104
-1813
13
380
-5870
-2999
-2326
-4561
-4590
-4352
121
-1044
-5200
2025
-1070
-193
3076
-302
566
547
2301
4653
4493
1254
5498
4720
2994
3319
4977
4009
2013
711
-200
-1333
-5681
-375
-3229
-3718
-4058
-3413
-3023
-1195
-3475
-1635
115
-117
-4616
-4372
-3377
1969
4513
1237
3272
4547
3875
5878
4729
5207
-248
5246
3986
426
4161
-1754
699
20
-2594
-998
427
-982
-1368
-3430
-3251
-4917
-1424
864
-4778
-2917
-1735
-18
2417
-3227
-1646
-383
1422
-1249
-383
2172
4313
3721
-81
3037
136
2194
2872
-1007
-1296
-407
2867
-3430
933
-1246
-4125
-4631
-2562
-690
-3671
-1950
-4100
-823
-3499
606
-601
-1235
-1021
494
3344
-1519
1659
4755
2583
1611
5432
5086
-538
-600
3432
2093
4486
-15
-2960
-1256
-2590
-1553
-4384
-37
-4564
-3593
-2945
-2919
-2393
-1920
9
98
1229
-614
324
-243
1676
-1267
3757
-1094
4647
3430
1943
4518
1678
878
-395
4526
3426
-1474
1677
-965
-2960
-557
-4696
722
-2111
-51
-1800
-3568
750
-3394
-2895
-3104
-1918
1362
641
-903
-2011
1722
1529
2585
-1303
4078
4094
3855
4502
-581
324
1107
3655
5519
4662
3874
-288
3958
6024
3748
3908
5450
5889
2072
-86
3567
-86
4759
5509
6032
1435
-2439
-1449
-5140
-2149
-1263
-5909
-6219
-3059
-3549
-2575
-6201
-2449
-4371
-5608
-983
-3726
-5046
-354
-3763
-5697
-4088
-6091
-560
93
3751
2652
485
4043
3094
165
2661
572
5411
3169
4323
4137
4974
1547
4534
916
2512
4525
2135
5428
3390
3558
544
3791
1155
2267
-1780
-1589
-261
-1984
-5830
-2966
-3279
-2602
-1161
-1809
1026
-733
-4957
-3821
-5399
-5664
-2693
-917
-3569
-1485
2092
4429
2709
4839
2802
606
1600
5022
3585
2267
3694
4241
164
3387
1190
-1846
565
1858
-3639
-3338
-5282
-922
-4390
-4600
-5260
-2372
-2405
-5154
-5150
640
-5424
-4771
-1963
1180
2778
3100
4655
2487
283
11
1562
2924
5247
716
5011
321
2901
4379
1909
3507
-1055
2280
-3005
-4079
-4790
-2276
-4873
386
-3424
-4515
-587
-4854
-1716
-46
-232
-2967
548
1915
3434
2372
-321
1933
2281
699
4131
4544
3766
1635
4110
2743
3926
-289
4028
658
332
846
-5225
-1019
-643
-5699
-4150
-803
-2878
-2422
-406
-1106
1174
-1138
-1543
-123
-293
299
4157
5751
1553
-417
-204
1128
4480
3446
3906
3958
2412
2291
-1628
-2095
-943
-1815
-3081
-886
-3049
-1136
-4535
-3124
-5325
-5074
-1379
-237
-1326
-2622
-4264
-1276
-1895
-380
2689
-740
1299
787
4085
4851
1627
495
-7
3199
2297
-703
5000
4537
980
4209
-2612
-2583
-5192
-5256
-393
-4725
-5341
-2457
-3256
-3951
-2850
-229
363
-3121
-5474
-2400
-952
-2655
716
1072
463
-602
3025
4755
2692
5872
5065
3978
-199
576
1380
2654
928
-3230
-1409
782
-4522
-2305
-1497
-4751
-4356
-1119
-2260
-347
-4587
-5111
-4106
-1758
-243
3723
-257
1402
-464
1027
4837
3977
2193
2008
1769
-211
2923
3645
1441
478
-36
-824
-863
1216
-628
434
-5011
-4108
-1380
-4631
-5326
-906
-4556
-2112
-1979
-3668
200
-3876
-373
-1575
3022
2118
1256
1557
4066
2162
1808
2648
4728
1504
3208
-602
2790
-365
3392
738
346
-1349
-4520
-3369
-1083
-4600
-1293
-2906
-3428
-1602
-4185
-5362
-2202
142
-4699
-4667
-1481
2524
2124
611
1912
3097
922
3309
4880
4107
5936
2163
1120
4329
2920
4557
-634
1482
-320
-2962
-4044
-2730
-2714
-924
-5228
-1972
-4725
-4134
136
-4021
-2880
-3961
-1055
2603
4270
2437
2455
3873
1185
481
788
5575
2001
-520
1573
4876
1966
6229
6177
5377
-563
3988
138
3278
1795
4433
104
1468
3674
5199
1129
2421
3327
-3895
-1327
-5959
-2463
-848
-4950
-801
-1184
-1019
-4125
-6441
-5427
-6195
-5967
-4918
-469
-3820
-3215
-5565
-5138
-5334
-4052
-310
-967
-2334
1711
3868
-68
2374
6147
5027
3876
2263
5803
103
5263
3717
4943
36
11
5181
-627
2482
3005
3010
-678
4878
4960
-186
3337
1030
1850
2192
-139
661
-561
-1575
-4226
60
-1149
-2392
-5488
-2737
-4094
-3734
-3836
-907
-4030
-953
-3954
-2834
-254
3131
2611
4787
2436
4045
3529
3627
-309
3026
2279
2320
4753
2404
1360
1691
-2629
1845
-2108
1211
-3926
-2705
-3244
-4310
-1356
-1275
-5938
-891
-814
-983
-920
-579
2162
-441
2745
813
4879
4517
2520
2486
141
1851
1344
5753
478
3513
3178
3808
2357
-607
-684
66
-1057
-5298
-1055
-1014
-1594
-2734
-4075
-497
-2472
-3321
-361
-1826
-2374
-1921
-3595
2101
-591
4737
1803
4365
1608
382
4987
5743
2136
3082
-597
4571
4675
-1033
3395
884
-4286
-4906
-4303
-2563
-4671
-4373
-5802
-1695
-1938
-12
1142
-3731
-3231
-2336
764
-495
1584
1567
1324
-1845
3625
2935
3861
272
-1521
35
3968
4298
-834
1985
2862
868
-108
5270
1163
3913
1386
1710
2980
783
3307
6166
3250
2692
4040
-3849
305
-2115
-3568
-5656
-3683
-401
-5976
-2004
-229
-2625
-3130
-4589
-924
-5439
-509
-2978
-6136
-2715
143
-4804
-452
-4911
-2084
1386
3089
2351
3246
6405
1948
3449
1311
4304
1903
1222
5258
1916
2289
3347
4259
29
3775
530
2183
2586
1753
200
4149
635
4213
3555
474
2002
-2288
-1471
-3791
-2308
-3414
785
-3487
-2974
-4884
-1283
-3220
-3562
-2156
-4557
461
-5830
305
-1678
76
813
2109
531
971
1283
6062
606
5388
4163
4376
1853
4733
3950
3029
2879
804
-1172
-5060
-4996
-5297
-5578
-2313
-1972
424
-2294
-3975
-5236
-1537
-821
-2525
-4019
-1867
3543
2031
-446
3483
362
3872
2747
5242
4463
-49
2604
1207
1525
3614
4589
1663
4272
-3192
77
-4303
-3165
-5748
55
-4813
-3193
-1822
-716
-3743
-169
-1842
560
-4514
-3195
1411
826
1810
-746
3538
5375
665
2330
2185
898
-263
-28
5278
1257
1781
2426
4688
1056
-1134
-1755
-1615
-613
-2092
-1828
-111
-990
-585
-5872
-3414
-1282
786
-1164
1758
-1471
-1730
860
4918
3388
4268
3868
361
5540
927
4720
5984
1973
2189
1952
1822
-1673
-522
1347
1287
-4785
-4660
-5154
-278
-5163
-4591
-2374
-3645
28
-4118
-3648
433
-993
-3477
-1160
-970
4248
1626
2345
2928
1227
2759
4990
4456
1176
377
2122
3243
1016
4630
-2257
-2645
608
831
-4979
-1717
379
-274
-698
-819
-2911
-2304
-4230
-4239
-1927
-4275
24
942
594
505
-270
2985
1895
5407
1597
-327
2829
4239
5324
-539
5790
4207
2556
-1672
461
-2016
-5435
-4111
-2606
-3961
-31
103
-5301
-4301
-2384
825
-1627
-1897
717
2287
-1012
-3696
2070
1541
5344
1669
2929
2422
5432
5600
-261
5675
1864
260
143
780
-603
-263
-967
-1425
-2005
72
-2645
107
-5191
-1861
-4064
-5304
-4289
-2150
-258
-1997
-4918
1123
2742
-1555
855
-1457
2494
3496
4860
239
5156
2866
3224
5687
4139
-582
-483
-1273
-321
988
-533
-1786
-3847
-4719
-3809
-5538
-1390
-4308
-3392
-3700
-3641
-5447
-2653
-4194
-82
-356
2531
2983
-383
5374
-120
613
-112
3396
5316
3516
4140
2626
4743
-685
2747
1769
-2427
-496
642
-5242
-1494
-1200
18
-5125
-5312
-1889
-4716
-2415
-4383
1752
2129
-1628
-1837
2633
3525
236
2320
1142
1411
-326
3324
2546
4943
2641
882
5149
4653
5167
4552
2324
5729
4836
3176
5412
2042
3007
4671
2026
5232
5876
5905
1884
-1485
-2502
374
151
-2899
-3858
-1582
-3363
-4686
-1412
-1462
-3235
-3408
-5821
-6048
-4731
-4705
-1354
-2610
-4188
-1346
-4971
-3607
-3410
-2886
1539
-1062
2874
5705
1222
2915
773
5916
4979
4573
2769
5503
-417
4999
3901
-273
3230
4402
3970
4865
-508
710
5501
-668
3611
3085
2746
938
2032
-1088
-3986
-5846
-1890
-2482
-1843
-2428
-273
676
-4847
-5327
-5775
139
-378
-3290
-5860
-4044
-330
1932
4616
3470
2611
1966
1835
3528
3047
2205
1205
3468
1816
3763
6227
4359
4094
-2329
1445
-5022
-4732
-5112
-4796
-5374
-1153
-1843
124
-3136
-3251
-4079
-3241
-6067
-4011
741
1901
1919
3792
3144
4527
5979
4685
5760
4178
-311
3715
4670
1238
771
2776
3110
-458
-4056
-706
-3627
-1702
-3685
-812
450
-1244
-4409
-4064
-4670
-3441
-4222
-947
-136
-1148
2791
337
4965
4453
2725
6157
2445
59
4690
1583
5932
1699
1600
1443
4704
1905
-808
-3900
-4997
-932
-2549
-3233
-1441
-1787
-1096
-4857
-1580
-575
-1863
-578
-3954
73
-1225
237
4194
4597
4898
3781
4306
1682
5034
4223
5486
-202
212
3925
-2153
162
-3431
-3177
78
-322
244
-3750
649
-4993
-5569
-193
-2259
350
-2926
-983
-4563
-2460
-519
168
1800
876
-1070
5119
5158
3232
999
616
-471
3433
4325
5325
2283
494
4941
692
3144
-343
110
909
-1216
-131
-3236
-2573
-5794
-2810
-2668
-1785
-1466
-4660
-4207
-270
-3800
-792
2691
229
1345
746
4528
5157
1850
4656
3872
5511
4062
-66
2863
2918
1167
1653
-464
1527
-4189
-5588
185
-3772
-5141
-3467
-1368
-2441
803
-2161
-4434
-3190
-290
-1972
-950
-723
382
243
5601
3186
1024
4310
891
368
4262
1659
4502
3432
3260
1006
-1025
-218
-3029
-4593
-2229
677
-1240
-5004
-1835
-5145
-1897
-4314
-27
-3352
-3986
-5358
-3448
1819
-708
3449
-370
-1166
2218
704
5813
5272
3494
3966
3549
5249
-599
4941
21
-514
4093
1285
-3431
-4934
-4964
-3952
-4744
-4756
-2151
-2193
-3306
-2456
-548
-734
-1847
-3260
-2675
-10
-402
106
2795
3092
2184
2622
2541
3882
3801
2640
1568
1939
1367
5497
3825
2331
-1935
1110
-1498
123
-2585
-4361
-4130
-1405
-700
-379
-4301
-5286
-5240
-4384
-1910
1590
1426
638
907
4838
-304
-1494
4671
3271
3596
27
3697
4594
4144
-1182
800
5496
3816
-891
5008
1057
3391
491
1240
5283
1148
3221
4520
3842
3845
-1779
390
-5463
-1717
-6021
538
-4452
-4848
-2775
1159
-1655
-572
-4410
-1173
-5532
950
753
-1883
302
-4139
-2173
-4286
-4176
-4332
-4486
-2706
1897
-4320
2992
5406
1985
6137
4940
5745
1683
1769
324
9
-2016
-707
3194
4082
-442
1218
1542
621
-805
-1192
2565
2878
4055
-78
1364
-1652
-1080
-1966
-6308
-2689
-2675
1592
-2215
414
1181
644
-4582
1253
844
-2184
-4447
-4588
495
-3934
1907
-1276
1792
-2343
2034
1155
-1008
-2
-50
-3057
559
-3404
163
-3397
-947
-2424
-376
-2954
2652
-32
2188
-472
-2226
-1330
-794
3222
-1991
3598
753
-2778
516
-2240
-255
-1150
-2538
47
337
166
-3423
2403
-739
1595
783
-2898
718
-2528
1393
-2784
-2113
-679
-405
870
1240
-2528
-217
-1356
1353
388
3169
500
-215
109
978
333
1680
-1632
-1910
1390
-3274
333
2342
-344
-3020
799
1234
-1706
1249
2809
-3475
-1240
-168
2062
-381
124
2423
75
2921
3259
2076
-2346
-786
1401
3389
3432
766
-240
-912
995
-86
2058
982
4266
1798
4095
2891
4808
5113
1299
4458
3232
3497
5762
500
200
2335
-278
293
1323
-3173
-3804
-4317
628
-1515
504
-5234
-4535
-4413
-3605
-1943
-5456
-3577
-373
-3897
4063
947
269
952
3934
1951
3450
2398
1394
984
5686
1446
5471
4350
3173
779
-1818
-37
-4884
-1929
-1552
-497
-3899
-204
-1265
458
-4929
203
-5889
-1388
513
-4468
-267
-3621
-2276
4598
1158
14
5211
3732
2330
1619
4433
2013
5422
2586
852
2249
1052
2189
-2835
-381
-272
-897
-1058
-5710
-978
-3262
-4666
-1083
-1510
-1272
-4908
-1377
683
538
4750
374
1553
140
3022
5317
2005
1396
3156
5086
-4
-498
4144
3746
4730
3638
1699
-45
1811
1029
4794
-398
4574
1143
2711
1738
6472
2285
4948
1615
-983
-406
-2868
108
223
-4382
-3803
-2775
-2530
-5201
-3864
182
-399
-5103
-306
-5195
-1495
-6118
-5469
-2838
-4827
-2410
-2849
-1017
825
503
-454
4094
777
2447
4322
6217
2137
5591
2833
5111
3348
4691
5974
2171
2088
1860
3968
994
-302
2931
1576
1439
5261
2406
3823
3552
4923
-1451
-2341
-4300
299
-664
-1647
-4053
-741
-3017
-41
-3016
-2750
-1876
-3072
-1544
-2542
-4379
-146
475
-1558
3840
-602
943
3661
2697
4650
4128
129
5272
4502
856
425
1190
3876
1263
-3343
-4516
-1077
-1439
-2377
-762
-2875
-4311
-5420
-929
-3992
-1983
-3241
266
-1944
-3133
1909
702
2055
3977
-925
814
2112
-191
3023
-421
238
4619
3457
4824
-605
2541
2942
-460
1218
-1586
-3939
-1352
98
-5569
-973
-5277
-5365
-985
-792
-316
-2675
-4152
-2444
1764
401
1413
4796
1415
154
1879
3486
-740
306
5520
1063
5387
1148
905
-1185
188
1768
321
-4914
843
739
-959
-260
804
-2230
-2582
-2854
-1540
-3773
227
1754
-2830
2009
-548
-782
514
3247
4205
3305
4221
516
2671
5918
2060
5477
2921
1757
-408
1932
-2905
1385
400
-2452
-2424
-961
-733
-1348
-1565
-3155
-5762
-2795
-3584
265
-168
-190
-2951
511
4270
3223
3331
-429
1904
3453
5854
4705
5267
4571
523
2422
4330
-350
115
2769
2011
-3231
-634
-1140
-1646
-4698
-5092
-2750
-1665
-3624
-2088
-1412
476
-3516
-3399
-1615
-4379
451
4369
4111
2722
5522
-442
2116
1677
2549
4299
420
260
4988
3760
4747
-561
-2820
-4581
-2520
-359
-1674
-2515
-5428
-1875
6
-2059
-3573
-3404
-2351
-3124
-3509
4188
4020
1898
4002
2648
3268
4239
943
-153
-898
2942
1510
789
-669
2478
4162
36
-201
-1054
2293
-375
484
644
-147
-2941
-3801
-3055
-3803
1225
-101
-1592
-3137
-2484
-4852
-2204
-2896
3659
4205
2476
4427
571
1652
3947
2447
574
4677
1251
-125
169
1200
44
686
177
-1126
980
-1782
-2397
-3935
-4921
-2215
-705
-2738
-3317
-5117
1225
-955
-2044
-1681
-139
1676
4127
2049
3929
2417
1885
1461
4291
5000
4062
4235
3819
2629
4548
-703
1589
-2249
679
-3582
-3330
365
-370
789
-352
315
232
-3906
-4069
857
-1475
-2981
1434
330
1061
3437
1074
1170
2784
4851
301
504
1673
1015
6063
529
2228
897
-553
1314
3933
-315
-863
-5333
-3257
-2030
-2517
-4181
-2872
-1883
-5507
-1939
-4341
-269
-4787
-1107
-2355
-265
-1670
2597
2838
1535
4939
5154
2005
1613
5321
399
2051
796
5424
3790
2642
-126
-2722
-1377
-972
-5457
-134
78
-2300
-755
-3816
-4744
-637
-3889
-4812
-2121
-4589
-1439
2432
-2
5257
-619
1482
1536
2670
5994
5619
3526
1214
-331
3447
-720
4154
4501
1966
-1470
-4334
-2585
-5971
-5559
-2936
-913
-234
-4357
-3565
-4053
698
397
-4075
-1907
2701
-1913
-2687
3165
4239
3706
-122
-1094
5316
1935
4181
-793
3009
-766
4042
-362
2631
3214
-827
-2889
981
1019
-3609
-4833
1366
-56
799
-4921
-1599
-4279
-336
-4752
574
181
1889
892
-1277
354
3052
1990
251
-198
4455
1552
-1095
3000
3981
2658
344
3018
-1402
-1693
1668
2448
-4496
1232
-3725
-4104
-336
-2054
-3943
-4701
-1993
-2941
-2069
-4628
-4394
-2940
2022
1576
-1210
-947
5228
3308
684
5086
5413
1036
1178
861
-1298
2479
-674
922
1294
-2288
-64
-4637
-2475
-3946
-1506
-699
-2833
-74
-4471
-3348
-1550
-1273
74
-55
-941
2273
2617
-1186
5440
2857
2243
377
5023
2919
710
3311
749
94
-628
-680
1162
3196
-190
-1590
-4186
-2621
267
-4106
-3205
-4230
-1496
-4106
-4996
-1831
-3885
-2324
-5080
-3334
-790
2629
101
3227
3965
4834
4437
405
2330
2523
4325
1444
-200
1882
2044
2045
-383
2962
-3698
-4849
-1307
-4127
-4489
-884
-3992
-588
-5339
-4141
-3962
-381
-240
-4980
-185
-4332
-2808
2846
747
1060
1152
2142
2471
976
435
3600
3210
5107
1554
5418
672
1006
-1049
-21
-3903
-5622
-5837
206
-2605
-4618
-388
-3913
-371
-1438
-3638
-2355
457
-5521
-2383
-2872
-832
3893
2415
1557
4445
2408
5547
-604
4825
5091
3771
181
2425
3918
3996
-352
1463
561
536
-2693
-2976
-4581
-4395
-915
-3453
-5458
-19
-4249
-2829
-4387
36
-1390
-1410
1722
3994
3695
400
2940
-1110
3437
2584
3225
2907
2810
-848
2217
4425
-99
3016
-2480
-1434
-2441
-535
-1054
-4835
-668
-4285
-4502
-24
-3080
-211
-944
1051
-3680
-2676
-2149
-1027
3090
3783
-518
1938
3140
5154
4636
3710
1137
3581
1359
2290
985
3538
3939
1638
1795
-4686
-15
-2785
-4243
-5393
-4639
494
-5130
-892
718
-1219
-591
-15
-266
2042
3275
-2726
2533
3999
1461
3133
5633
927
961
-615
286
4488
425
167
3439
625
-39
589
-3202
-613
-1845
-3156
83
324
-5779
-203
-5542
501
-1183
-2384
-1800
-4597
-2364
-732
-1883
1106
-422
4732
3671
2007
647
3673
835
5116
3543
5071
2256
5164
-350
2850
-478
2099
367
899
-1275
-5094
-102
-238
-3891
-626
-4018
-4290
-4726
127
-4026
-2273
1375
-2286
1789
2554
2968
2555
2975
1976
1347
4113
1689
1435
5025
2341
1938
4841
4827
3926
454
-4416
-4410
-3957
-3172
-3129
-3691
-2081
-5809
-4754
-2729
-4375
-4149
417
-662
-1116
591
1397
1173
3340
3725
5050
1529
4008
5165
33
2410
33
5667
2484
3205
1852
-2402
-1963
-2121
-4280
-2580
-1862
-3428
-4380
-4236
-4125
-6091
-572
-273
-3053
-2367
-658
-638
-534
21
1302
824
2912
3516
3836
2923
3936
405
4790
3001
4321
-216
2004
4725
1200
736
-360
-3843
-5064
-2853
-432
-1905
-2549
-2657
-5491
-371
-5390
-4494
-4066
-1620
494
729
950
2617
-58
-371
5211
915
5262
3673
3646
2669
1441
3735
2582
566
4841
687
-876
2403
-3385
219
-1754
-789
267
-4197
-706
-3803
-4119
-1637
-4878
-2931
-1495
-3279
1600
-961
-1536
1339
2219
176
267
2058
1787
2231
1439
2372
-655
2829
5759
1091
4223
2469
1406
2581
3854
980
403
4832
4808
4674
2959
1066
3847
1367
5393
-1246
-3559
-2569
-3931
-5817
-5057
-447
-3270
-5427
-2703
-4902
-1339
-5358
-5887
-3436
-5221
274
-6206
-4268
-4421
-4076
-2097
-5245
-5843
688
1082
1390
1352
3490
1352
4498
2664
744
2948
4768
1300
1579
1592
1534
2866
3624
1395
3334
3492
2916
3900
1040
1376
1043
1553
4428
-986
-2700
-1786
-4318
-628
-5622
-5036
-4127
-4704
-3208
-3604
69
-1105
-4001
338
-3474
-3146
-5933
-5626
210
-894
-1496
-713
2116
-1399
4146
2265
3114
4347
4742
-427
24
4370
5174
528
2197
-442
2261
2403
3200
-27
273
2395
4911
2106
741
4180
1036
968
3006
-4642
-5371
-4148
-3187
580
-3691
-5514
-1427
552
-2640
-4058
-4998
-2555
-925
-2422
-2758
-3534
-4399
-2237
-3602
-5441
-3126
-835
-2117
4084
-1254
1768
3899
923
3436
4666
2104
4712
2769
4915
5243
1980
4138
1450
694
-674
1664
386
2792
-805
-1548
-1788
298
-1841
2224
-1675
-1690
-5681
913
-1828
-5910
-2316
-2878
649
-3644
-4460
-5516
-3664
-3177
-4173
-3852
-4376
-4334
-2861
-3034
-443
2717
1132
3361
3905
3398
3145
5709
5255
1787
-651
2804
3983
4299
-1015
-1272
885
-1222
-1511
176
675
-5252
-1436
-2749
-2336
-1788
-196
-387
-4500
-479
-3822
-1753
2643
-2456
193
3444
-59
1932
2647
-154
4420
3448
1572
3444
4812
1343
3720
-251
177
3651
-1335
-2719
-4182
-2887
-2344
605
-5794
-926
-4641
-1172
-5556
-3925
-1641
-3852
534
1519
663
943
1960
501
709
2620
3290
-559
-698
4472
953
3570
1259
4967
5052
-749
922
-765
247
1112
-2621
-2600
-1029
-4599
233
-1202
-1470
-927
-1343
-3208
-906
-4011
-301
3950
1176
668
1024
120
1544
26
1223
-731
-750
3266
5067
3081
4174
449
3215
4563
5940
4904
2127
1733
2063
1323
1429
1789
4525
6116
1333
2802
-1929
263
-1779
-2354
-6225
-1772
-1736
-786
247
-6144
-3096
-6165
-4943
-4112
-1209
-1665
-5257
-3696
-3369
-4504
-2784
-3434
-1713
-3474
-2440
-1565
-3482
-922
3226
5655
3632
3631
5680
6252
5210
3945
717
4654
4982
5648
5401
2769
399
3433
464
4059
5444
5728
2964
940
1801
2408
3951
5881
2355
718
-2604
-35
-103
-1913
-3580
-4664
-2120
-2405
991
-995
-2224
-4720
-2082
-5415
654
-290
-2696
3912
3717
1571
-29
2243
-824
-61
4663
-260
243
5093
1079
4839
1584
2547
-222
623
4236
5095
2352
822
3124
2414
3392
6428
3289
-63
2861
2471
-3418
-4796
-1537
-3006
-5898
-2787
-1756
-4075
-2052
91
-342
-6323
-3188
-4340
-3102
-3313
-927
-2507
-2897
-1823
-1422
-932
957
-769
1285
2561
4462
5181
511
47
6044
5816
444
294
3341
3596
6148
2491
5380
5288
4400
3093
-613
4675
3281
-582
-660
1560
-241
-1567
57
1856
-2274
-1358
-4899
-883
-4255
-421
-5031
-1512
-2797
-5222
387
-5620
-2150
-2271
-4780
-3200
-4132
-2465
2672
5546
-781
2151
3281
-158
2000
-929
285
4988
5786
2762
409
4373
2962
1109
1848
1596
3702
1853
2534
4794
829
839
3334
5580
6108
4681
4020
-684
529
-6019
-4801
-4660
-1351
-6058
-4095
-5199
-3041
12
-5780
-110
-3720
-3967
-5059
-3104
-4365
-2537
-4807
-3183
-2551
-1302
232
-1660
401
-502
2331
4491
4129
1981
3817
6348
1996
1069
2608
2981
3414
511
1580
335
1937
4896
5007
4812
5293
380
3085
3329
-907
-121
-223
2262
-4765
-2055
-1899
-1968
-1674
-897
-1649
-5662
393
-4637
-4149
-1628
-5961
-1445
-5602
-1484
-1690
-3526
2858
-1234
-1576
-3209
-630
742
487
-1550
-3157
-2110
-3048
1743
-685
-28
-1632
-3049
-3193
385
1410
3259
-625
-1039
805
-586
2005
43
-2581
-3196
2970
1936
1734
-2100
-568
454
2669
-2826
-17
-1004
332
-2834
272
-2620
-2231
737
-1829
3213
-804
3026
-772
-335
-541
2619
-320
-1058
2846
-2823
1679
2220
65
-1199
-2285
-730
1116
-981
-1525
2587
-3178
-2462
-112
1656
-3121
-3272
-1988
-1022
-1477
-2709
-456
1822
2519
-1714
542
-1482
-1515
-1570
1057
1524
-405
480
-1994
-2286
2371
1108
1984
1815
-205
2353
795
2091
3064
1847
