7106
3459
3499
-3756
6157
1696
3698
107
3209
-7957
-1529
-5303
-890
-6805
-4705
-2957
-3835
1623
37
-2574
2027
-569
-813
-3492
-4617
3054
-4723
-3498
3220
-2917
4466
-729
4980
-3504
-3144
-5221
6775
2358
4917
7734
1857
4810
2982
5447
-2986
8068
9039
1427
5522
6855
-2163
679
3853
8203
-50
-5381
-6954
-6448
-320
-7583
-2000
-8393
-2005
-6949
-5774
910
-4744
903
-1391
3296
4100
3032
1560
3435
-6936
-1559
950
-7795
-2864
-2439
1509
-2350
1734
-2105
3851
-2415
-7742
-5620
-2575
2703
-2111
1887
366
8676
8847
-177
-1930
8169
9173
-1784
5065
6916
9214
7194
4224
4350
2715
5904
370
-4708
1114
1426
-7341
3342
-4099
517
2983
7156
6526
723
1410
5114
4946
-1260
-2095
7472
5953
7378
7670
1951
-823
6630
4796
5507
7607
-6815
-3792
-6703
-3045
-4154
-1883
-1761
-1441
-4065
3076
-1889
-5567
4632
672
342
-3619
-265
-1809
1874
-5704
-5722
-1399
2222
-2708
4050
-3088
-721
-1411
541
-6753
-7170
-7839
-3418
-1308
-7592
-4962
713
-1444
-4184
-2913
3150
-3386
2822
1404
-4547
3285
3635
-1996
-2659
5226
5655
-2604
2891
-6984
3600
-7534
-2357
-8532
-1626
1337
-4224
-4720
-1407
-454
-8681
2069
-2903
696
-7821
-8075
1804
-1081
2444
-4029
-5674
-4838
-5138
1541
3513
-4444
-1933
-1129
1061
-8687
-886
-1325
-4216
-6708
-758
-5533
-5263
489
4097
6395
3526
-1563
5727
-2104
2791
-3572
3993
5957
-4208
1237
5830
597
-4808
7845
3397
5101
-973
5
-1017
882
-5582
-2036
4258
8343
7276
4152
8539
4311
-877
8324
-1728
2778
2565
3713
1445
4898
6293
3214
3741
7674
996
6047
5574
164
6300
5994
-1744
-2491
8197
7959
-86
2802
-3553
-223
-3377
1244
-1368
666
-282
1041
-7137
-2245
-7642
-799
-7737
2253
-7760
1529
5234
2394
6228
5766
683
-2647
5566
2857
-1965
7497
1823
8609
888
1797
1676
601
6941
6683
1630
1879
8612
9208
1883
2590
-675
1824
5916
2124
-1602
3309
6473
7930
-14
6916
7293
671
5024
3187
6009
-2196
-2177
-1851
6971
-725
4298
3402
5807
9050
915
7776
552
8478
2038
2467
-290
-765
-8879
1441
980
-3313
-6454
-3912
-340
-1599
-4703
-2020
-7029
-5702
-4896
-6555
-8216
-5673
-5936
3754
-6466
-7810
2399
-1611
-5607
1973
3436
-4774
-5219
-679
-7020
-7534
150
-8918
-7951
-6110
-3110
-5756
-2743
-8074
2812
120
740
-5668
3336
-6094
-6259
-6458
4375
-5405
-6367
-1850
-3526
399
8169
6015
3811
3079
397
2724
653
1891
2209
5381
1410
1484
5789
8003
902
7009
7293
6702
4847
4780
-1250
-1822
9358
615
-2581
616
9883
